{"learner":{"attributes":{"scikit_learn":"{\"_estimator_type\": \"classifier\"}"},"feature_names":[],"feature_types":[],"gradient_booster":{"model":{"cats":{"enc":[],"feature_segments":[],"sorted_idx":[]},"gbtree_model_param":{"num_parallel_tree":"1","num_trees":"300"},"iteration_indptr":[0,1,2,3,4,5,6,7,8,9,10,11,12,13,14,15,16,17,18,19,20,21,22,23,24,25,26,27,28,29,30,31,32,33,34,35,36,37,38,39,40,41,42,43,44,45,46,47,48,49,50,51,52,53,54,55,56,57,58,59,60,61,62,63,64,65,66,67,68,69,70,71,72,73,74,75,76,77,78,79,80,81,82,83,84,85,86,87,88,89,90,91,92,93,94,95,96,97,98,99,100,101,102,103,104,105,106,107,108,109,110,111,112,113,114,115,116,117,118,119,120,121,122,123,124,125,126,127,128,129,130,131,132,133,134,135,136,137,138,139,140,141,142,143,144,145,146,147,148,149,150,151,152,153,154,155,156,157,158,159,160,161,162,163,164,165,166,167,168,169,170,171,172,173,174,175,176,177,178,179,180,181,182,183,184,185,186,187,188,189,190,191,192,193,194,195,196,197,198,199,200,201,202,203,204,205,206,207,208,209,210,211,212,213,214,215,216,217,218,219,220,221,222,223,224,225,226,227,228,229,230,231,232,233,234,235,236,237,238,239,240,241,242,243,244,245,246,247,248,249,250,251,252,253,254,255,256,257,258,259,260,261,262,263,264,265,266,267,268,269,270,271,272,273,274,275,276,277,278,279,280,281,282,283,284,285,286,287,288,289,290,291,292,293,294,295,296,297,298,299,300],"tree_info":[0,0,0,0,0,0,0,0,0,0,0,0,0,0,0,0,0,0,0,0,0,0,0,0,0,0,0,0,0,0,0,0,0,0,0,0,0,0,0,0,0,0,0,0,0,0,0,0,0,0,0,0,0,0,0,0,0,0,0,0,0,0,0,0,0,0,0,0,0,0,0,0,0,0,0,0,0,0,0,0,0,0,0,0,0,0,0,0,0,0,0,0,0,0,0,0,0,0,0,0,0,0,0,0,0,0,0,0,0,0,0,0,0,0,0,0,0,0,0,0,0,0,0,0,0,0,0,0,0,0,0,0,0,0,0,0,0,0,0,0,0,0,0,0,0,0,0,0,0,0,0,0,0,0,0,0,0,0,0,0,0,0,0,0,0,0,0,0,0,0,0,0,0,0,0,0,0,0,0,0,0,0,0,0,0,0,0,0,0,0,0,0,0,0,0,0,0,0,0,0,0,0,0,0,0,0,0,0,0,0,0,0,0,0,0,0,0,0,0,0,0,0,0,0,0,0,0,0,0,0,0,0,0,0,0,0,0,0,0,0,0,0,0,0,0,0,0,0,0,0,0,0,0,0,0,0,0,0,0,0,0,0,0,0,0,0,0,0,0,0,0,0,0,0,0,0,0,0,0,0,0,0,0,0,0,0,0,0,0,0,0,0,0,0,0,0,0,0,0,0],"trees":[{"base_weights":[-1.8041209E-7,-8.3977544E-1,1.5846333E1,-8.834888E-1,1.0070098E1,5.7312443E1,-9.8629266E-2,-1.178299E-1,-9.588717E-1,-6.707993E-2,2.0865161E0,7.057266E0,-7.441382E-2,3.4998865E0,-9.9902384E-2,-1.0035025E0,-2.6298758E-1,-3.9018296E-2,2.7747424E0,-1.00830935E-1,1.3157353E-1,-9.706154E-2,3.785623E-1],"categories":[],"categories_nodes":[],"categories_segments":[],"categories_sizes":[],"default_left":[0,0,0,0,0,0,0,0,0,0,0,0,0,0,0,0,0,0,0,0,0,0,0],"id":0,"left_children":[1,3,5,7,9,11,-1,13,15,-1,-1,-1,-1,17,-1,19,21,-1,-1,-1,-1,-1,-1],"loss_changes":[1.3660432E4,4.738186E2,3.6116523E4,5.5982605E1,4.7444513E2,1.1549074E4,0E0,2.84835E2,2.7211304E1,0E0,0E0,0E0,0E0,1.6622404E3,0E0,1.0590698E1,1.6030663E2,0E0,0E0,0E0,0E0,0E0,0E0],"parents":[2147483647,0,0,1,1,2,2,3,3,4,4,5,5,7,7,8,8,13,13,15,15,16,16],"right_children":[2,4,6,8,10,12,-1,14,16,-1,-1,-1,-1,18,-1,20,22,-1,-1,-1,-1,-1,-1],"split_conditions":[2.7489154E0,1.3291566E-1,2.77377E0,-4.913447E-1,-1.1083066E-2,-1.3065666E-1,-9.8629266E-2,-4.2980734E-1,-1.3283747E-1,-6.707993E-2,2.0865161E0,7.057266E0,-7.441382E-2,7.953145E-2,-9.9902384E-2,4.3765283E0,5.057058E-1,-3.9018296E-2,2.7747424E0,-1.00830935E-1,1.3157353E-1,-9.706154E-2,3.785623E-1],"split_indices":[67,2,67,39,8,24,0,0,29,0,0,0,0,37,0,13,8,0,0,0,0,0,0],"split_type":[0,0,0,0,0,0,0,0,0,0,0,0,0,0,0,0,0,0,0,0,0,0,0],"sum_hessian":[1.0245322E3,9.738691E2,5.0663116E1,9.708979E2,2.9711432E0,1.3933638E1,3.6729477E1,8.7251724E1,8.836462E2,1.9594178E0,1.0117255E0,1.11674E1,2.7662368E0,1.6507774E1,7.074395E1,8.299735E2,5.367268E1,1.5073429E1,1.434345E0,8.288209E2,1.1525987E0,4.633447E1,7.3382115E0],"tree_param":{"num_deleted":"0","num_feature":"78","num_nodes":"23","size_leaf_vector":"1"}},{"base_weights":[-7.432075E-1,-9.16215E-1,3.8561344E-1,-9.639731E-1,-2.0731665E-1,5.6357217E0,-1.6044286E-1,-5.963917E-1,-1.0065849E0,-8.839776E-1,2.910446E0,6.567808E-1,-6.1428495E-2,6.201251E-1,-1.02623574E-1,4.3657923E-1,-9.957545E-2,-1.0079582E-1,-1.7841749E-2,-9.6876246E-1,1.3809304E-1,1.4127579E0,-3.40742E-1,8.937781E-1,-8.701225E-2,1.4307195E-1,-9.213819E-2,-9.9021584E-2,-4.4385036E-3,-8.847087E-2,1.6052501E-1,1.0441326E-1,-8.1062675E-2],"categories":[],"categories_nodes":[],"categories_segments":[],"categories_sizes":[],"default_left":[0,0,0,0,0,0,0,0,0,0,0,0,0,0,0,0,0,0,0,0,0,0,0,0,0,0,0,0,0,0,0,0,0],"id":1,"left_children":[1,3,5,7,9,11,13,15,17,19,21,-1,-1,23,-1,25,-1,-1,-1,27,-1,-1,29,31,-1,-1,-1,-1,-1,-1,-1,-1,-1],"loss_changes":[1.9485822E2,2.9047913E1,3.823744E2,1.2072693E1,1.2029378E2,7.722351E1,8.2746506E1,3.6120407E1,6.430664E-1,1.0289619E1,3.7621173E2,0E0,0E0,2.7088608E1,0E0,3.4817673E1,0E0,0E0,0E0,8.588028E-1,0E0,0E0,1.0811614E1,1.4941349E1,0E0,0E0,0E0,0E0,0E0,0E0,0E0,0E0,0E0],"parents":[2147483647,0,0,1,1,2,2,3,3,4,4,5,5,6,6,7,7,8,8,9,9,10,10,13,13,15,15,19,19,22,22,23,23],"right_children":[2,4,6,8,10,12,14,16,18,20,22,-1,-1,24,-1,26,-1,-1,-1,28,-1,-1,30,32,-1,-1,-1,-1,-1,-1,-1,-1,-1],"split_conditions":[-1.3214251E-1,5.057058E-1,-1.1867962E-1,-4.913447E-1,-1.3283747E-1,-4.2980734E-1,-4.913447E-1,-4.2980734E-1,4.4715304E0,3.6840007E0,-9.521624E-3,6.567808E-1,-6.1428495E-2,-1.6819373E-1,-1.02623574E-1,-3.9079854E-1,-9.957545E-2,-1.0079582E-1,-1.7841749E-2,3.4297326E0,1.3809304E-1,1.4127579E0,1.2414091E0,-1.3065666E-1,-8.701225E-2,1.4307195E-1,-9.213819E-2,-9.9021584E-2,-4.4385036E-3,-8.847087E-2,1.6052501E-1,1.0441326E-1,-8.1062675E-2],"split_indices":[67,8,67,39,29,0,39,0,41,13,68,0,0,37,0,1,0,0,0,13,0,0,13,24,0,0,0,0,0,0,0,0,0],"split_type":[0,0,0,0,0,0,0,0,0,0,0,0,0,0,0,0,0,0,0,0,0,0,0,0,0,0,0,0,0,0,0,0,0],"sum_hessian":[9.94957E2,8.628947E2,1.3206226E2,8.08094E2,5.4800728E1,1.1563467E1,1.2049879E2,8.55044E1,7.225896E2,4.56168E1,9.183932E0,1.0018521E1,1.5449457E0,6.351746E1,5.6981327E1,2.3814325E1,6.1690075E1,7.211767E2,1.4129081E0,4.452241E1,1.0943857E0,1.3119903E0,7.8719416E0,5.4001465E1,9.515997E0,1.37180195E1,1.0096307E1,4.3442944E1,1.079468E0,6.57843E0,1.2935115E0,4.997987E1,4.021595E0],"tree_param":{"num_deleted":"0","num_feature":"78","num_nodes":"33","size_leaf_vector":"1"}},{"base_weights":[-7.333209E-1,-9.0729415E-1,3.5179523E-1,-9.588581E-1,-2.0212609E-1,3.5274174E0,-1.6091102E-1,-5.763928E-1,-1.0048572E0,-8.7130153E-1,1.9553958E0,4.0454025E0,-6.5666676E-2,6.116439E-1,-1.02585986E-1,3.7975016E-1,-9.930255E-2,-1.0063694E-1,-1.6977591E-2,-9.633425E-1,1.2124733E-1,5.1274786E0,-9.01128E-2,5.105846E-1,2.8534886E-1,8.844942E-1,-8.545204E-1,-1.04777865E-1,1.1542081E-1,-9.867805E-2,-4.218068E-3,-4.7402333E-2,9.0261364E-1,1.0357044E-1,-7.967908E-2,-8.956123E-2,-2.5045658E-2],"categories":[],"categories_nodes":[],"categories_segments":[],"categories_sizes":[],"default_left":[0,0,0,0,0,0,0,0,0,0,0,0,0,0,0,0,0,0,0,0,0,0,0,0,0,0,0,0,0,0,0,0,0,0,0,0,0],"id":2,"left_children":[1,3,5,7,9,11,13,15,17,19,21,23,-1,25,-1,27,-1,-1,-1,29,-1,31,-1,-1,-1,33,35,-1,-1,-1,-1,-1,-1,-1,-1,-1,-1],"loss_changes":[1.7340164E2,2.8547485E1,2.0800221E2,1.2374817E1,8.129501E1,4.11342E1,7.456633E1,3.280125E1,6.5734863E-1,9.370785E0,1.2566681E2,5.5750427E0,0E0,2.4387709E1,0E0,2.9319534E1,0E0,0E0,0E0,8.547363E-1,0E0,1.4577524E2,0E0,0E0,0E0,1.3611893E1,1.8378258E-2,0E0,0E0,0E0,0E0,0E0,0E0,0E0,0E0,0E0,0E0],"parents":[2147483647,0,0,1,1,2,2,3,3,4,4,5,5,6,6,7,7,8,8,9,9,10,10,11,11,13,13,15,15,19,19,21,21,25,25,26,26],"right_children":[2,4,6,8,10,12,14,16,18,20,22,24,-1,26,-1,28,-1,-1,-1,30,-1,32,-1,-1,-1,34,36,-1,-1,-1,-1,-1,-1,-1,-1,-1,-1],"split_conditions":[-1.3214251E-1,5.057058E-1,-1.1867962E-1,-4.913447E-1,-1.3283747E-1,-1.8570071E-1,-4.913447E-1,-4.2980734E-1,4.4715304E0,3.6840007E0,5.069614E-2,6.286804E-1,-6.5666676E-2,-1.6819373E-1,-1.02585986E-1,-4.3172258E-1,-9.930255E-2,-1.0063694E-1,-1.6977591E-2,3.4297326E0,1.2124733E-1,-9.061031E-3,-9.01128E-2,5.105846E-1,2.8534886E-1,-1.3065666E-1,-3.8432446E-1,-1.04777865E-1,1.1542081E-1,-9.867805E-2,-4.218068E-3,-4.7402333E-2,9.0261364E-1,1.0357044E-1,-7.967908E-2,-8.956123E-2,-2.5045658E-2],"split_indices":[67,8,67,39,29,17,39,0,41,13,18,51,0,37,0,0,0,0,0,13,0,35,0,0,0,24,1,0,0,0,0,0,0,0,0,0,0],"split_type":[0,0,0,0,0,0,0,0,0,0,0,0,0,0,0,0,0,0,0,0,0,0,0,0,0,0,0,0,0,0,0,0,0,0,0,0,0],"sum_hessian":[9.158419E2,7.8943774E2,1.26404205E2,7.3531E2,5.4127747E1,1.67538E1,1.09650406E2,8.039401E1,6.5491595E2,4.176889E1,1.2358853E1,1.4937675E1,1.8161235E0,5.807333E1,5.1577076E1,2.442617E1,5.5967842E1,6.5352747E2,1.3885268E0,4.051694E1,1.2519517E0,5.479277E0,6.879576E0,6.167091E0,8.770585E0,4.9296143E1,8.777185E0,8.466772E0,1.5959398E1,3.9442142E1,1.0747993E0,2.6090574E0,2.8702197E0,4.558072E1,3.7154243E0,7.766236E0,1.0109497E0],"tree_param":{"num_deleted":"0","num_feature":"78","num_nodes":"37","size_leaf_vector":"1"}},{"base_weights":[-7.2296137E-1,-8.9784634E-1,3.3220276E-1,-9.073239E-1,2.9106376E-1,2.7017186E0,-1.6176227E-1,-9.96567E-1,-5.5124E-1,3.0324778E-1,-6.410266E-2,6.025366E-1,-1.0256123E-1,-8.3589596E-1,-1.0083784E-1,4.2227187E0,-9.4851965E-1,8.754568E-1,-8.41052E-1,-1.0059979E-1,-1.5426725E-2,4.678835E-1,-5.2167E-3,-5.5390935E-2,-9.7412705E-2,1.0277636E-1,-7.826522E-2,-8.8539176E-2,-2.4304723E-2],"categories":[],"categories_nodes":[],"categories_segments":[],"categories_sizes":[],"default_left":[0,0,0,0,0,0,0,0,0,0,0,0,0,0,0,0,0,0,0,0,0,0,0,0,0,0,0,0,0],"id":3,"left_children":[1,3,5,7,-1,9,11,13,15,-1,-1,17,-1,19,-1,21,23,25,27,-1,-1,-1,-1,-1,-1,-1,-1,-1,-1],"loss_changes":[1.5594412E2,2.8766968E1,1.4165387E2,2.2419067E1,0E0,2.501799E1,6.7157936E1,2.5152588E-1,2.829596E2,0E0,0E0,2.2051567E1,0E0,5.10153E0,0E0,2.2634018E1,8.4072876E-1,1.2418682E1,2.6417255E-2,0E0,0E0,0E0,0E0,0E0,0E0,0E0,0E0,0E0,0E0],"parents":[2147483647,0,0,1,1,2,2,3,3,5,5,6,6,7,7,8,8,11,11,13,13,15,15,16,16,17,17,18,18],"right_children":[2,4,6,8,-1,10,12,14,16,-1,-1,18,-1,20,-1,22,24,26,28,-1,-1,-1,-1,-1,-1,-1,-1,-1,-1],"split_conditions":[-1.3214251E-1,5.103157E0,-1.1867962E-1,-2.2586492E-1,2.9106376E-1,-1.8570071E-1,-4.913447E-1,-4.913447E-1,-2.2565779E-1,3.0324778E-1,-6.410266E-2,-1.6819373E-1,-1.0256123E-1,-3.6749774E-1,-1.0083784E-1,-5.5931125E-2,-2.2482932E-1,-1.3065666E-1,-1.1700026E-2,-1.0059979E-1,-1.5426725E-2,4.678835E-1,-5.2167E-3,-5.5390935E-2,-9.7412705E-2,1.0277636E-1,-7.826522E-2,-8.8539176E-2,-2.4304723E-2],"split_indices":[67,13,67,67,0,17,39,39,67,0,0,37,0,66,0,14,67,24,34,0,0,0,0,0,0,0,0,0,0],"split_type":[0,0,0,0,0,0,0,0,0,0,0,0,0,0,0,0,0,0,0,0,0,0,0,0,0,0,0,0,0],"sum_hessian":[8.424615E2,7.2281055E2,1.1965094E2,7.217761E2,1.0344067E0,1.9869392E1,9.978155E1,5.7569464E2,1.4608148E2,1.8164831E1,1.7045621E0,5.3101776E1,4.6679768E1,4.433753E1,5.313571E2,1.0482935E1,1.3559854E2,4.498972E1,8.112057E0,3.51019E1,9.23563E0,9.386891E0,1.0960442E0,9.642248E0,1.259563E2,4.1553E1,3.4367216E0,7.1046944E0,1.0073626E0],"tree_param":{"num_deleted":"0","num_feature":"78","num_nodes":"29","size_leaf_vector":"1"}},{"base_weights":[-7.1379304E-1,-8.8926655E-1,3.1418642E-1,-9.479647E-1,-1.7312396E-1,2.2156703E0,-1.6272992E-1,-5.383079E-1,-1.00157E0,-8.426779E-1,1.3004766E0,2.4814074E0,-6.444902E-2,5.933073E-1,-1.0254653E-1,2.9764542E-1,-9.877782E-2,-1.0034027E-1,-1.3978091E-2,-9.5194095E-1,1.2927328E-1,2.5676649E0,-8.765091E-2,2.5973317E-1,2.7894033E-2,8.66578E-1,-8.270234E-1,1.04627185E-1,-9.1628335E-2,-9.794059E-2,-1.476113E-2,-5.0924428E-2,3.747133E-1,1.0202118E-1,-7.682399E-2,-8.74715E-2,-2.3537051E-2],"categories":[],"categories_nodes":[],"categories_segments":[],"categories_sizes":[],"default_left":[0,0,0,0,0,0,0,0,0,0,0,0,0,0,0,0,0,0,0,0,0,0,0,0,0,0,0,0,0,0,0,0,0,0,0,0,0],"id":4,"left_children":[1,3,5,7,9,11,13,15,17,19,21,23,-1,25,-1,27,-1,-1,-1,29,-1,31,-1,-1,-1,33,35,-1,-1,-1,-1,-1,-1,-1,-1,-1,-1],"loss_changes":[1.3998392E2,2.7656433E1,1.0343814E2,1.2888367E1,5.177034E1,1.8974487E1,6.0489174E1,2.7691135E1,7.11853E-1,9.611759E0,4.7599476E1,4.6687317E0,0E0,1.995325E1,0E0,2.4827507E1,0E0,0E0,0E0,6.230526E-1,0E0,4.0540443E1,0E0,0E0,0E0,1.1345915E1,3.420639E-2,0E0,0E0,0E0,0E0,0E0,0E0,0E0,0E0,0E0,0E0],"parents":[2147483647,0,0,1,1,2,2,3,3,4,4,5,5,6,6,7,7,8,8,9,9,10,10,11,11,13,13,15,15,19,19,21,21,25,25,26,26],"right_children":[2,4,6,8,10,12,14,16,18,20,22,24,-1,26,-1,28,-1,-1,-1,30,-1,32,-1,-1,-1,34,36,-1,-1,-1,-1,-1,-1,-1,-1,-1,-1],"split_conditions":[-1.3214251E-1,5.057058E-1,-1.1867962E-1,-4.913447E-1,-1.3283747E-1,-4.2980734E-1,-4.913447E-1,-4.2980734E-1,4.4715304E0,3.134181E0,5.069614E-2,-2.8745702E-2,-6.444902E-2,-1.6819373E-1,-1.0254653E-1,-3.9079854E-1,-9.877782E-2,-1.0034027E-1,-1.3978091E-2,3.6773214E0,1.2927328E-1,4.340974E-2,-8.765091E-2,2.5973317E-1,2.7894033E-2,-1.3065666E-1,-2.6193637E-1,1.04627185E-1,-9.1628335E-2,-9.794059E-2,-1.476113E-2,-5.0924428E-2,3.747133E-1,1.0202118E-1,-7.682399E-2,-8.74715E-2,-2.3537051E-2],"split_indices":[67,8,67,39,29,0,39,0,41,10,18,18,0,37,0,1,0,0,0,13,0,18,0,0,0,24,17,0,0,0,0,0,0,0,0,0,0],"split_type":[0,0,0,0,0,0,0,0,0,0,0,0,0,0,0,0,0,0,0,0,0,0,0,0,0,0,0,0,0,0,0,0,0,0,0,0,0],"sum_hessian":[7.734875E2,6.608218E2,1.1266568E2,6.104619E2,5.0359856E1,2.186064E1,9.0805046E1,7.1915855E1,5.385461E2,3.4921062E1,1.5438793E1,2.0123402E1,1.7372382E0,4.8561577E1,4.224347E1,2.526472E1,4.6651134E1,5.3723926E2,1.3068326E0,3.374846E1,1.1726035E0,9.645085E0,5.793708E0,1.894687E1,1.1765308E0,4.1052902E1,7.5086756E0,1.5712796E1,9.551924E0,3.242364E1,1.3248161E0,2.8301754E0,6.81491E0,3.7869976E1,3.182926E0,6.5058317E0,1.0028439E0],"tree_param":{"num_deleted":"0","num_feature":"78","num_nodes":"37","size_leaf_vector":"1"}},{"base_weights":[-7.048927E-1,-8.8053775E-1,3.0006707E-1,-9.9210197E-1,-4.62879E-1,9.2301524E-1,-1.0281154E-1,-8.100016E-1,-1.0062505E-1,2.619432E0,-8.8289547E-1,1.3364543E0,-9.0814725E-2,-9.82223E-2,-1.0751474E-2,2.7954894E-1,3.0260209E-2,-9.342662E-1,2.1550833E-1,2.1779666E0,8.312381E-1,2.0352845E-1,-8.5148506E-2,-5.167527E-2,-9.645192E-2,6.492778E-2,2.2342132E-1,1.004918E-1,-7.7788316E-2],"categories":[],"categories_nodes":[],"categories_segments":[],"categories_sizes":[],"default_left":[0,0,0,0,0,0,0,0,0,0,0,0,0,0,0,0,0,0,0,0,0,0,0,0,0,0,0,0,0],"id":5,"left_children":[1,3,5,7,9,11,-1,13,-1,15,17,19,-1,-1,21,-1,-1,23,-1,25,27,-1,-1,-1,-1,-1,-1,-1,-1],"loss_changes":[1.2572528E2,2.7743927E1,8.9057434E1,4.133606E-1,1.6992819E2,5.649309E1,0E0,5.4268665E0,0E0,5.590187E0,1.9912605E1,2.3686646E1,0E0,0E0,1.5518483E1,0E0,0E0,9.349823E-1,0E0,4.3078613E-1,1.1706675E1,0E0,0E0,0E0,0E0,0E0,0E0,0E0,0E0],"parents":[2147483647,0,0,1,1,2,2,3,3,4,4,5,5,7,7,9,9,10,10,11,11,14,14,17,17,19,19,20,20],"right_children":[2,4,6,8,10,12,-1,14,-1,16,18,20,-1,-1,22,-1,-1,24,-1,26,28,-1,-1,-1,-1,-1,-1,-1,-1],"split_conditions":[-1.3214251E-1,-2.2586492E-1,-4.2980734E-1,-4.913447E-1,-2.2565779E-1,-1.3130096E-1,-1.0281154E-1,-1.31529E-1,-1.0062505E-1,-8.9015495E-3,4.0978103E0,-1.1867962E-1,-9.0814725E-2,-9.82223E-2,-3.9079854E-1,2.7954894E-1,3.0260209E-2,-2.2482932E-1,2.1550833E-1,-2.4146198E-1,-5.594546E-2,2.0352845E-1,-8.5148506E-2,-5.167527E-2,-9.645192E-2,6.492778E-2,2.2342132E-1,1.004918E-1,-7.7788316E-2],"split_indices":[67,67,0,39,67,24,0,24,0,5,13,67,0,0,1,0,0,67,0,15,14,0,0,0,0,0,0,0,0],"split_type":[0,0,0,0,0,0,0,0,0,0,0,0,0,0,0,0,0,0,0,0,0,0,0,0,0,0,0,0,0],"sum_hessian":[7.0976215E2,6.0427234E2,1.054898E2,4.7580167E2,1.2847067E2,7.201715E1,3.347265E1,3.850241E1,4.3729926E2,1.4778852E1,1.13691826E2,5.8972523E1,1.304463E1,3.14884E1,7.014011E0,1.3543102E1,1.2357504E0,1.1248227E2,1.209551E0,2.0881063E1,3.8091457E1,1.6289362E0,5.385075E0,8.821412E0,1.0366086E2,1.1861749E0,1.969489E1,3.471951E1,3.37195E0],"tree_param":{"num_deleted":"0","num_feature":"78","num_nodes":"29","size_leaf_vector":"1"}},{"base_weights":[-6.9611704E-1,-8.719229E-1,2.8912032E-1,-9.8924154E-1,-4.4674757E-1,8.8102925E-1,-1.02813125E-1,-7.8952974E-1,-1.0052033E-1,2.1623094E0,-8.70266E-1,1.2686452E0,-8.962353E-2,-9.986755E-2,-2.64562E-2,2.2959714E0,2.7638381E-2,-9.261369E-1,2.2688389E-1,-7.578574E-2,1.3938297E0,2.8016445E-1,-9.077007E-2,2.4294789E-1,8.404855E-2,-4.9323235E-2,-9.590281E-2,2.005152E-1,9.5316224E-2],"categories":[],"categories_nodes":[],"categories_segments":[],"categories_sizes":[],"default_left":[0,0,0,0,0,0,0,0,0,0,0,0,0,0,0,0,0,0,0,0,0,0,0,0,0,0,0,0,0],"id":6,"left_children":[1,3,5,7,9,11,-1,13,-1,15,17,19,-1,-1,21,23,-1,25,-1,-1,27,-1,-1,-1,-1,-1,-1,-1,-1],"loss_changes":[1.131257E2,2.7153748E1,7.842684E1,5.85907E-1,1.360975E2,4.8766045E1,0E0,5.8289547E0,0E0,3.7138062E0,2.055413E1,1.5560425E1,0E0,0E0,2.4773642E1,1.0616455E0,0E0,1.0090027E0,0E0,0E0,1.2689438E1,0E0,0E0,0E0,0E0,0E0,0E0,0E0,0E0],"parents":[2147483647,0,0,1,1,2,2,3,3,4,4,5,5,7,7,9,9,10,10,11,11,14,14,15,15,17,17,20,20],"right_children":[2,4,6,8,10,12,-1,14,-1,16,18,20,-1,-1,22,24,-1,26,-1,-1,28,-1,-1,-1,-1,-1,-1,-1,-1],"split_conditions":[-1.3214251E-1,-2.2586492E-1,-4.2980734E-1,-4.913447E-1,-2.2565779E-1,-1.3130096E-1,-1.02813125E-1,-3.6749774E-1,-1.0052033E-1,-5.5931125E-2,4.3765283E0,-2.5225532E-1,-8.962353E-2,-9.986755E-2,-8.6392686E-2,-5.2575454E-2,2.7638381E-2,-2.2482932E-1,2.2688389E-1,-7.578574E-2,-1.1867962E-1,2.8016445E-1,-9.077007E-2,2.4294789E-1,8.404855E-2,-4.9323235E-2,-9.590281E-2,2.005152E-1,9.5316224E-2],"split_indices":[67,67,0,39,67,24,0,66,0,14,13,69,0,0,66,19,0,67,0,0,67,0,0,0,0,0,0,0,0],"split_type":[0,0,0,0,0,0,0,0,0,0,0,0,0,0,0,0,0,0,0,0,0,0,0,0,0,0,0,0,0],"sum_hessian":[6.506555E2,5.5223047E2,9.842507E1,4.3176645E2,1.2046399E2,6.813822E1,3.028685E1,3.5689312E1,3.9607715E2,1.625019E1,1.042138E2,5.6173203E1,1.1965019E1,2.7769423E1,7.9198923E0,1.4971673E1,1.2785175E0,1.0308404E2,1.1297575E0,2.9741066E0,5.3199093E1,1.3638422E0,6.55605E0,1.3100789E1,1.8708833E0,8.408579E0,9.467546E1,2.0797379E1,3.2401714E1],"tree_param":{"num_deleted":"0","num_feature":"78","num_nodes":"29","size_leaf_vector":"1"}},{"base_weights":[-6.873274E-1,-9.8626566E-1,-1.12602524E-1,-7.68051E-1,-1.0042085E-1,6.948768E-1,-1.0133451E-1,-9.927056E-2,-1.1873247E-2,-9.6934855E-2,1.2024177E0,3.4783253E-1,-9.062801E-2,1.3638912E0,-8.6231865E-2,9.4862334E-2,2.35111E-1],"categories":[],"categories_nodes":[],"categories_segments":[],"categories_sizes":[],"default_left":[0,0,0,0,0,0,0,0,0,0,0,0,0,0,0,0,0],"id":7,"left_children":[1,3,5,7,-1,9,-1,-1,11,-1,13,-1,-1,15,-1,-1,-1],"loss_changes":[1.0251636E2,7.6678467E-1,1.5018436E2,5.780777E0,0E0,9.3202484E1,0E0,0E0,3.0691982E1,0E0,2.9163284E1,0E0,0E0,2.9846344E1,0E0,0E0,0E0],"parents":[2147483647,0,0,1,1,2,2,3,3,5,5,8,8,10,10,13,13],"right_children":[2,4,6,8,-1,10,-1,-1,12,-1,14,-1,-1,16,-1,-1,-1],"split_conditions":[-2.2586492E-1,-4.913447E-1,-4.2980734E-1,-3.6749774E-1,-1.0042085E-1,-2.5225532E-1,-1.0133451E-1,-9.927056E-2,-1.2021151E-1,-9.6934855E-2,1.2632519E-1,3.4783253E-1,-9.062801E-2,7.4231327E-1,-8.6231865E-2,9.4862334E-2,2.35111E-1],"split_indices":[67,39,0,66,0,69,0,0,66,0,28,0,0,9,0,0,0],"split_type":[0,0,0,0,0,0,0,0,0,0,0,0,0,0,0,0,0],"sum_hessian":[5.963406E2,3.9182178E2,2.045188E2,3.3098217E1,3.5872357E2,1.07962944E2,9.6555855E1,2.5276093E1,7.822123E0,2.501826E1,8.294469E1,1.0063032E0,6.81582E0,7.7243286E1,5.7014046E0,5.5752304E1,2.149098E1],"tree_param":{"num_deleted":"0","num_feature":"78","num_nodes":"17","size_leaf_vector":"1"}},{"base_weights":[-6.7828125E-1,-9.831676E-1,-1.11036025E-1,-7.4549603E-1,-1.0032562E-1,6.4620376E-1,-1.0128557E-1,-9.5628485E-2,1.3981928E-1,-9.6491985E-2,1.1009276E0,1.8201658E-1,-8.113865E-2,1.2448643E0,-8.5095294E-2,8.927845E-2,2.1158603E-1],"categories":[],"categories_nodes":[],"categories_segments":[],"categories_sizes":[],"default_left":[0,0,0,0,0,0,0,0,0,0,0,0,0,0,0,0,0],"id":8,"left_children":[1,3,5,7,-1,9,-1,-1,11,-1,13,-1,-1,15,-1,-1,-1],"loss_changes":[9.473457E1,9.544678E-1,1.323452E2,6.045803E0,0E0,7.830517E1,0E0,0E0,1.260922E1,0E0,2.4291885E1,0E0,0E0,2.1852776E1,0E0,0E0,0E0],"parents":[2147483647,0,0,1,1,2,2,3,3,5,5,8,8,10,10,13,13],"right_children":[2,4,6,8,-1,10,-1,-1,12,-1,14,-1,-1,16,-1,-1,-1],"split_conditions":[-2.2586492E-1,-4.913447E-1,-4.2980734E-1,-1.31529E-1,-1.0032562E-1,-2.5225532E-1,-1.0128557E-1,-9.5628485E-2,-3.9079854E-1,-9.6491985E-2,2.3690607E-1,1.8201658E-1,-8.113865E-2,-2.1450177E-1,-8.5095294E-2,8.927845E-2,2.1158603E-1],"split_indices":[67,39,0,24,0,69,0,0,1,0,18,0,0,27,0,0,0],"split_type":[0,0,0,0,0,0,0,0,0,0,0,0,0,0,0,0,0],"sum_hessian":[5.4740295E2,3.5556076E2,1.9184215E2,3.068079E1,3.2487997E2,1.0443426E2,8.74079E1,2.4715904E1,5.9648867E0,2.2740568E1,8.169369E1,1.825871E0,4.1390157E0,7.642046E1,5.273222E0,5.5863827E1,2.055664E1],"tree_param":{"num_deleted":"0","num_feature":"78","num_nodes":"17","size_leaf_vector":"1"}},{"base_weights":[-6.6909826E-1,-9.7992456E-1,-1.0918728E-1,-7.231864E-1,-1.0023369E-1,6.02588E-1,-1.0123836E-1,-9.814027E-2,7.486449E-2,-9.602385E-2,1.0126147E0,3.4351012E-1,-8.8787675E-2,1.1597072E0,-8.2188584E-2,1.3104276E-1,-5.7193827E-2],"categories":[],"categories_nodes":[],"categories_segments":[],"categories_sizes":[],"default_left":[0,0,0,0,0,0,0,0,0,0,0,0,0,0,0,0,0],"id":9,"left_children":[1,3,5,7,-1,9,-1,-1,11,-1,13,-1,-1,15,-1,-1,-1],"loss_changes":[8.756517E1,1.1383362E0,1.16939644E2,6.1707525E0,0E0,6.622337E1,0E0,0E0,2.9455454E1,0E0,2.2850975E1,0E0,0E0,2.0465446E1,0E0,0E0,0E0],"parents":[2147483647,0,0,1,1,2,2,3,3,5,5,8,8,10,10,13,13],"right_children":[2,4,6,8,-1,10,-1,-1,12,-1,14,-1,-1,16,-1,-1,-1],"split_conditions":[-2.2586492E-1,-4.913447E-1,-4.2980734E-1,-3.6749774E-1,-1.0023369E-1,-2.5225532E-1,-1.0123836E-1,-9.814027E-2,-2.762984E-1,-9.602385E-2,-1.3117684E-1,3.4351012E-1,-8.8787675E-2,-5.256025E-2,-8.2188584E-2,1.3104276E-1,-5.7193827E-2],"split_indices":[67,39,0,66,0,69,0,0,66,0,24,0,0,19,0,0,0],"split_type":[0,0,0,0,0,0,0,0,0,0,0,0,0,0,0,0,0],"sum_hessian":[5.027617E2,3.2280896E2,1.7995274E2,2.8588436E1,2.9422052E2,1.00827324E2,7.912542E1,2.142609E1,7.1623473E0,2.0676497E1,8.0150826E1,1.0231668E0,6.1391807E0,7.454181E1,5.6090174E0,6.879705E1,5.744762E0],"tree_param":{"num_deleted":"0","num_feature":"78","num_nodes":"17","size_leaf_vector":"1"}},{"base_weights":[-6.613519E-1,-9.765213E-1,-1.08653545E-1,-6.9937205E-1,-1.0014415E-1,5.671717E-1,-1.0119059E-1,-9.750686E-2,8.920959E-2,-9.552757E-2,9.4444007E-1,2.9182968E-1,-8.779824E-2,1.0860356E0,-8.516132E-2,1.20928146E-1,-7.958501E-2],"categories":[],"categories_nodes":[],"categories_segments":[],"categories_sizes":[],"default_left":[0,0,0,0,0,0,0,0,0,0,0,0,0,0,0,0,0],"id":10,"left_children":[1,3,5,7,-1,9,-1,-1,11,-1,13,-1,-1,15,-1,-1,-1],"loss_changes":[8.035007E1,1.3303223E0,1.0365164E2,6.0812597E0,0E0,5.6748116E1,0E0,0E0,2.4612236E1,0E0,2.0868996E1,0E0,0E0,1.7924286E1,0E0,0E0,0E0],"parents":[2147483647,0,0,1,1,2,2,3,3,5,5,8,8,10,10,13,13],"right_children":[2,4,6,8,-1,10,-1,-1,12,-1,14,-1,-1,16,-1,-1,-1],"split_conditions":[-2.2586492E-1,-4.913447E-1,-4.2980734E-1,-3.6749774E-1,-1.0014415E-1,-2.5225532E-1,-1.0119059E-1,-9.750686E-2,-3.1420523E-1,-9.552757E-2,2.3690607E-1,2.9182968E-1,-8.779824E-2,-1.3102934E-1,-8.516132E-2,1.20928146E-1,-7.958501E-2],"split_indices":[67,39,0,66,0,69,0,0,66,0,18,0,0,24,0,0,0],"split_type":[0,0,0,0,0,0,0,0,0,0,0,0,0,0,0,0,0],"sum_hessian":[4.6087796E2,2.9302008E2,1.6785788E2,2.6571388E1,2.6644867E2,9.622966E1,7.162822E1,1.9512964E1,7.0584235E0,1.8806183E1,7.742348E1,1.2843487E0,5.774075E0,7.213212E1,5.291361E0,6.803394E1,4.098177E0],"tree_param":{"num_deleted":"0","num_feature":"78","num_nodes":"17","size_leaf_vector":"1"}},{"base_weights":[-6.533936E-1,-9.72961E-1,-1.08370766E-1,-6.7566186E-1,-1.0005613E-1,5.325186E-1,-1.0113978E-1,-9.288054E-2,2.3849407E-1,-9.500031E-2,8.7957823E-1,1.5226856E0,-7.6911956E-2,1.0095346E0,-8.396799E-2,-5.398528E-2,2.9699418E-1,1.1703783E-1,-6.010378E-2],"categories":[],"categories_nodes":[],"categories_segments":[],"categories_sizes":[],"default_left":[0,0,0,0,0,0,0,0,0,0,0,0,0,0,0,0,0,0,0],"id":11,"left_children":[1,3,5,7,-1,9,-1,-1,11,-1,13,15,-1,17,-1,-1,-1,-1,-1],"loss_changes":[7.371692E1,1.5153656E0,9.185635E1,6.1842203E0,0E0,4.865735E1,0E0,0E0,9.431162E0,0E0,1.779076E1,1.0982733E1,0E0,1.9084892E1,0E0,0E0,0E0,0E0,0E0],"parents":[2147483647,0,0,1,1,2,2,3,3,5,5,8,8,10,10,11,11,13,13],"right_children":[2,4,6,8,-1,10,-1,-1,12,-1,14,16,-1,18,-1,-1,-1,-1,-1],"split_conditions":[-2.2586492E-1,-4.913447E-1,-4.2980734E-1,-1.31529E-1,-1.0005613E-1,-2.5225532E-1,-1.0113978E-1,-9.288054E-2,-1.3146514E-1,-9.500031E-2,1.2632519E-1,-4.3981802E-1,-7.6911956E-2,-5.256025E-2,-8.396799E-2,-5.398528E-2,2.9699418E-1,1.1703783E-1,-6.010378E-2],"split_indices":[67,39,0,24,0,69,0,0,24,0,28,66,0,19,0,0,0,0,0],"split_type":[0,0,0,0,0,0,0,0,0,0,0,0,0,0,0,0,0,0,0],"sum_hessian":[4.2284872E2,2.6606165E2,1.567871E2,2.4766554E1,2.4129507E2,9.194376E1,6.484333E1,1.9383066E1,5.383487E0,1.7111576E1,7.4832184E1,2.1421556E0,3.2413318E0,6.995704E1,4.8751493E0,1.1418477E0,1.0003078E0,6.3853474E1,6.103565E0],"tree_param":{"num_deleted":"0","num_feature":"78","num_nodes":"19","size_leaf_vector":"1"}},{"base_weights":[-6.4473075E-1,-9.6920156E-1,-1.0774086E-1,-6.517021E-1,-9.996877E-2,4.985322E-1,-1.0108318E-1,-9.625347E-2,1.3241014E-1,-9.4439305E-2,8.170131E-1,2.969934E-1,-8.6804725E-2,9.519926E-1,-8.0891214E-2,-8.579715E-2,1.0822388E-1],"categories":[],"categories_nodes":[],"categories_segments":[],"categories_sizes":[],"default_left":[0,0,0,0,0,0,0,0,0,0,0,0,0,0,0,0,0],"id":12,"left_children":[1,3,5,7,-1,9,-1,-1,11,-1,13,-1,-1,15,-1,-1,-1],"loss_changes":[6.775444E1,1.6971436E0,8.143645E1,6.00867E0,0E0,4.172255E1,0E0,0E0,2.4519789E1,0E0,1.6908741E1,0E0,0E0,1.7043423E1,0E0,0E0,0E0],"parents":[2147483647,0,0,1,1,2,2,3,3,5,5,8,8,10,10,13,13],"right_children":[2,4,6,8,-1,10,-1,-1,12,-1,14,-1,-1,16,-1,-1,-1],"split_conditions":[-2.2586492E-1,-4.913447E-1,-4.2980734E-1,-3.6749774E-1,-9.996877E-2,-2.5225532E-1,-1.0108318E-1,-9.625347E-2,-3.585785E-1,-9.4439305E-2,-1.3117684E-1,2.969934E-1,-8.6804725E-2,-4.3172258E-1,-8.0891214E-2,-8.579715E-2,1.0822388E-1],"split_indices":[67,39,0,66,0,69,0,0,66,0,24,0,0,0,0,0,0],"split_type":[0,0,0,0,0,0,0,0,0,0,0,0,0,0,0,0,0],"sum_hessian":[3.884618E2,2.4164519E2,1.468166E2,2.3130302E1,2.185149E2,8.811215E1,5.8704453E1,1.6401129E1,6.729174E0,1.5576263E1,7.253589E1,1.2409583E0,5.488216E0,6.735848E1,5.177409E0,4.1466956E0,6.321179E1],"tree_param":{"num_deleted":"0","num_feature":"78","num_nodes":"17","size_leaf_vector":"1"}},{"base_weights":[-6.3568956E-1,-9.65317E-1,-1.0730818E-1,-6.2768227E-1,-9.988122E-2,4.6514848E-1,-1.0101785E-1,-9.08026E-2,2.5908554E-1,-9.384184E-2,7.571081E-1,-7.430856E-2,1.309378E0,8.862425E-1,-8.391182E-2,2.8152558E-1,-5.771896E-2,1.0472365E-1,-6.1131205E-2],"categories":[],"categories_nodes":[],"categories_segments":[],"categories_sizes":[],"default_left":[0,0,0,0,0,0,0,0,0,0,0,0,0,0,0,0,0,0,0],"id":13,"left_children":[1,3,5,7,-1,9,-1,-1,11,-1,13,-1,15,17,-1,-1,-1,-1,-1],"loss_changes":[6.2287384E1,1.8664398E0,7.2180984E1,5.8510265E0,0E0,3.5785633E1,0E0,0E0,7.503249E0,0E0,1.5462986E1,0E0,1.1259607E1,1.6685322E1,0E0,0E0,0E0,0E0,0E0],"parents":[2147483647,0,0,1,1,2,2,3,3,5,5,8,8,10,10,12,12,13,13],"right_children":[2,4,6,8,-1,10,-1,-1,12,-1,14,-1,16,18,-1,-1,-1,-1,-1],"split_conditions":[-2.2586492E-1,-4.913447E-1,-4.2980734E-1,-1.31529E-1,-9.988122E-2,-2.5225532E-1,-1.0101785E-1,-9.08026E-2,-3.6749774E-1,-9.384184E-2,2.3690607E-1,-7.430856E-2,-3.585785E-1,-5.256025E-2,-8.391182E-2,2.8152558E-1,-5.771896E-2,1.0472365E-1,-6.1131205E-2],"split_indices":[67,39,0,24,0,69,0,0,66,0,18,0,66,19,0,0,0,0,0],"split_type":[0,0,0,0,0,0,0,0,0,0,0,0,0,0,0,0,0,0,0],"sum_hessian":[3.5722086E2,2.194755E2,1.3774535E2,2.1589605E1,1.978859E2,8.459406E1,5.3151283E1,1.6385504E1,5.204102E0,1.4185323E1,7.0408745E1,2.812735E0,2.391367E0,6.555051E1,4.8582363E0,1.0561076E0,1.3352594E0,5.9459087E1,6.091419E0],"tree_param":{"num_deleted":"0","num_feature":"78","num_nodes":"19","size_leaf_vector":"1"}},{"base_weights":[-6.260797E-1,-9.612973E-1,-1.0654815E-1,-6.0442007E-1,-9.979262E-2,4.331984E-1,-1.0094049E-1,-9.488947E-2,1.5795362E-1,-9.320535E-2,7.00694E-1,2.1417539E-1,-8.420978E-2,8.339049E-1,-8.067199E-2,9.775547E-2,-7.106757E-2],"categories":[],"categories_nodes":[],"categories_segments":[],"categories_sizes":[],"default_left":[0,0,0,0,0,0,0,0,0,0,0,0,0,0,0,0,0],"id":14,"left_children":[1,3,5,7,-1,9,-1,-1,11,-1,13,-1,-1,15,-1,-1,-1],"loss_changes":[5.7352142E1,2.0164185E0,6.4035E1,5.714645E0,0E0,3.0737309E1,0E0,0E0,1.6587463E1,0E0,1.4619053E1,0E0,0E0,1.4962616E1,0E0,0E0,0E0],"parents":[2147483647,0,0,1,1,2,2,3,3,5,5,8,8,10,10,13,13],"right_children":[2,4,6,8,-1,10,-1,-1,12,-1,14,-1,-1,16,-1,-1,-1],"split_conditions":[-2.2586492E-1,-4.913447E-1,-4.2980734E-1,-3.6749774E-1,-9.979262E-2,-2.5225532E-1,-1.0094049E-1,-9.488947E-2,-3.585785E-1,-9.320535E-2,-1.3117684E-1,2.1417539E-1,-8.420978E-2,-5.5827074E-2,-8.067199E-2,9.775547E-2,-7.106757E-2],"split_indices":[67,39,0,66,0,69,0,0,66,0,24,0,0,14,0,0,0],"split_type":[0,0,0,0,0,0,0,0,0,0,0,0,0,0,0,0,0],"sum_hessian":[3.289027E2,1.9939601E2,1.2950671E2,2.0189545E1,1.7920647E2,8.137765E1,4.812906E1,1.3737616E1,6.451929E0,1.2925212E1,6.845244E1,1.7797662E0,4.672163E0,6.3304947E1,5.147492E0,5.8254265E1,5.050682E0],"tree_param":{"num_deleted":"0","num_feature":"78","num_nodes":"17","size_leaf_vector":"1"}},{"base_weights":[-6.1626875E-1,-9.571285E-1,-1.0589796E-1,-5.82103E-1,-9.970212E-2,4.0283185E-1,-1.008476E-1,-9.413801E-2,1.5455212E-1,-9.252735E-2,6.4827484E-1,1.7985257E0,-8.2845345E-2,7.749172E-1,-8.370386E-2,2.3610742E-1,3.835528E-2,2.0035032E-2,1.2217089E-1],"categories":[],"categories_nodes":[],"categories_segments":[],"categories_sizes":[],"default_left":[0,0,0,0,0,0,0,0,0,0,0,0,0,0,0,0,0,0,0],"id":15,"left_children":[1,3,5,7,-1,9,-1,-1,11,-1,13,15,-1,17,-1,-1,-1,-1,-1],"loss_changes":[5.2804657E1,2.1457214E0,5.6839565E1,5.418174E0,0E0,2.6454569E1,0E0,0E0,1.3432551E1,0E0,1.3351585E1,1.5466013E0,0E0,1.5862698E1,0E0,0E0,0E0,0E0,0E0],"parents":[2147483647,0,0,1,1,2,2,3,3,5,5,8,8,10,10,11,11,13,13],"right_children":[2,4,6,8,-1,10,-1,-1,12,-1,14,16,-1,18,-1,-1,-1,-1,-1],"split_conditions":[-2.2586492E-1,-4.913447E-1,-4.2980734E-1,-3.6749774E-1,-9.970212E-2,-2.5225532E-1,-1.008476E-1,-9.413801E-2,-3.585785E-1,-9.252735E-2,2.3690607E-1,-3.9081213E-1,-8.2845345E-2,-2.2799705E-1,-8.370386E-2,2.3610742E-1,3.835528E-2,2.0035032E-2,1.2217089E-1],"split_indices":[67,39,0,66,0,69,0,0,66,0,18,1,0,17,0,0,0,0,0],"split_type":[0,0,0,0,0,0,0,0,0,0,0,0,0,0,0,0,0,0,0],"sum_hessian":[3.03119E2,1.8121567E2,1.2190332E2,1.892222E1,1.6229346E2,7.831531E1,4.358801E1,1.2532186E1,6.390035E0,1.178363E1,6.653168E1,2.0806863E0,4.3093486E0,6.1745358E1,4.786317E0,1.0103624E0,1.070324E0,2.764402E1,3.4101337E1],"tree_param":{"num_deleted":"0","num_feature":"78","num_nodes":"19","size_leaf_vector":"1"}},{"base_weights":[-6.055101E-1,-9.527023E-1,-1.0376474E-1,-5.5801266E-1,-9.960886E-2,3.766629E-1,-1.0073542E-1,-8.7419343E-1,2.8417626E-1,-9.18056E-2,6.027903E-1,-9.357052E-2,-3.6007655E-1,1.1084797E-1,-7.008412E-2,7.363409E-1,-8.083986E-2,-2.4233698E-3,-5.1742535E-2,9.069656E-2,-6.639605E-2],"categories":[],"categories_nodes":[],"categories_segments":[],"categories_sizes":[],"default_left":[0,0,0,0,0,0,0,0,0,0,0,0,0,0,0,0,0,0,0,0,0],"id":16,"left_children":[1,3,5,7,-1,9,-1,11,13,-1,15,-1,17,-1,-1,19,-1,-1,-1,-1,-1],"loss_changes":[4.8764923E1,2.2809753E0,5.066634E1,5.2227683E0,0E0,2.2908352E1,0E0,1.0034275E-1,5.529723E0,0E0,1.2959873E1,0E0,1.5144196E-1,0E0,0E0,1.5047226E1,0E0,0E0,0E0,0E0,0E0],"parents":[2147483647,0,0,1,1,2,2,3,3,5,5,7,7,8,8,10,10,12,12,15,15],"right_children":[2,4,6,8,-1,10,-1,12,14,-1,16,-1,18,-1,-1,20,-1,-1,-1,-1,-1],"split_conditions":[-2.2586492E-1,-4.913447E-1,-4.2980734E-1,-1.31529E-1,-9.960886E-2,-2.5225532E-1,-1.0073542E-1,2.020439E0,-3.9079854E-1,-9.18056E-2,-1.3117684E-1,-9.357052E-2,2.0414147E0,1.1084797E-1,-7.008412E-2,-5.256025E-2,-8.083986E-2,-2.4233698E-3,-5.1742535E-2,9.069656E-2,-6.639605E-2],"split_indices":[67,39,0,24,0,69,0,36,1,0,24,0,0,0,0,19,0,0,0,0,0],"split_type":[0,0,0,0,0,0,0,0,0,0,0,0,0,0,0,0,0,0,0,0,0],"sum_hessian":[2.7950058E2,1.646613E2,1.14839264E2,1.76806E1,1.469807E2,7.5356346E1,3.9482918E1,1.2826993E1,4.8536057E0,1.0749414E1,6.460693E1,1.0723903E1,2.10309E0,2.5741282E0,2.2794776E0,5.9458206E1,5.148728E0,1.0391521E0,1.063938E0,5.3314247E1,6.143956E0],"tree_param":{"num_deleted":"0","num_feature":"78","num_nodes":"21","size_leaf_vector":"1"}},{"base_weights":[-5.946303E-1,-9.4784176E-1,-1.02940254E-1,-5.375842E-1,-9.9511966E-2,3.4826908E-1,-1.0059991E-1,-9.273295E-2,1.8575688E-1,-9.1038026E-2,5.5542594E-1,1.5669659E0,-8.042949E-2,6.9729066E-1,-7.467568E-1,1.9963029E-1,3.618561E-2,8.451196E-2,-8.324592E-2,-5.240745E-3,-8.5830204E-2],"categories":[],"categories_nodes":[],"categories_segments":[],"categories_sizes":[],"default_left":[0,0,0,0,0,0,0,0,0,0,0,0,0,0,0,0,0,0,0,0,0],"id":17,"left_children":[1,3,5,7,-1,9,-1,-1,11,-1,13,15,-1,17,19,-1,-1,-1,-1,-1,-1],"loss_changes":[4.4966812E1,2.3916016E0,4.5008274E1,5.180833E0,0E0,1.9754807E1,0E0,0E0,1.0906229E1,0E0,1.2346125E1,9.7692585E-1,0E0,1.3874376E1,4.7948885E-1,0E0,0E0,0E0,0E0,0E0,0E0],"parents":[2147483647,0,0,1,1,2,2,3,3,5,5,8,8,10,10,11,11,13,13,14,14],"right_children":[2,4,6,8,-1,10,-1,-1,12,-1,14,16,-1,18,20,-1,-1,-1,-1,-1,-1],"split_conditions":[-2.2586492E-1,-4.913447E-1,-4.2980734E-1,-3.6749774E-1,-9.9511966E-2,-2.5225532E-1,-1.0059991E-1,-9.273295E-2,-3.585785E-1,-9.1038026E-2,-5.5827074E-2,-3.9081213E-1,-8.042949E-2,2.3690607E-1,-2.413099E-1,1.9963029E-1,3.618561E-2,8.451196E-2,-8.324592E-2,-5.240745E-3,-8.5830204E-2],"split_indices":[67,39,0,66,0,69,0,0,66,0,14,1,0,18,15,0,0,0,0,0,0],"split_type":[0,0,0,0,0,0,0,0,0,0,0,0,0,0,0,0,0,0,0,0,0],"sum_hessian":[2.5848206E2,1.4988364E2,1.0859842E2,1.6766018E1,1.3311761E2,7.282572E1,3.57727E1,1.0712161E1,6.0538564E0,9.812432E0,6.3013287E1,2.2843194E0,3.7695372E0,5.7241684E1,5.7716045E0,1.2001998E0,1.0841194E0,5.260563E1,4.636053E0,1.0022992E0,4.769305E0],"tree_param":{"num_deleted":"0","num_feature":"78","num_nodes":"21","size_leaf_vector":"1"}},{"base_weights":[-5.835443E-1,-9.430097E-1,-1.0250698E-1,-5.1478046E-1,-9.941051E-2,3.212114E-1,-1.0043692E-1,-9.1886364E-2,1.8937221E-1,-9.022285E-2,5.1137793E-1,1.41396E0,-7.89888E-2,-8.921807E-2,6.368448E-1,1.7852533E-1,3.378824E-2,7.860922E-2,-8.2475886E-2],"categories":[],"categories_nodes":[],"categories_segments":[],"categories_sizes":[],"default_left":[0,0,0,0,0,0,0,0,0,0,0,0,0,0,0,0,0,0,0],"id":18,"left_children":[1,3,5,7,-1,9,-1,-1,11,-1,13,15,-1,-1,17,-1,-1,-1,-1],"loss_changes":[4.1415276E1,2.4918976E0,3.9986248E1,4.9278398E0,0E0,1.7067215E1,0E0,0E0,9.416357E0,0E0,1.1558796E1,7.686801E-1,0E0,0E0,1.3272875E1,0E0,0E0,0E0,0E0],"parents":[2147483647,0,0,1,1,2,2,3,3,5,5,8,8,10,10,11,11,14,14],"right_children":[2,4,6,8,-1,10,-1,-1,12,-1,14,16,-1,-1,18,-1,-1,-1,-1],"split_conditions":[-2.2586492E-1,-4.913447E-1,-4.2980734E-1,-3.6749774E-1,-9.941051E-2,-2.5225532E-1,-1.0043692E-1,-9.1886364E-2,-3.585785E-1,-9.022285E-2,-4.3172258E-1,-3.9081213E-1,-7.89888E-2,-8.921807E-2,-1.3102934E-1,1.7852533E-1,3.378824E-2,7.860922E-2,-8.2475886E-2],"split_indices":[67,39,0,66,0,69,0,0,66,0,0,1,0,0,24,0,0,0,0],"split_type":[0,0,0,0,0,0,0,0,0,0,0,0,0,0,0,0,0,0,0],"sum_hessian":[2.3906955E2,1.3627489E2,1.0279466E2,1.5707298E1,1.2056758E2,7.037466E1,3.2420013E1,9.786387E0,5.920911E0,8.963487E0,6.1411167E1,2.4336581E0,3.4872527E0,4.537763E0,5.6873405E1,1.319378E0,1.1142801E0,5.202336E1,4.850042E0],"tree_param":{"num_deleted":"0","num_feature":"78","num_nodes":"19","size_leaf_vector":"1"}},{"base_weights":[-5.7172394E-1,-9.3798774E-1,-1.0193342E-1,-4.9292913E-1,-9.930356E-2,2.9479647E-1,-1.0024209E-1,-9.099936E-2,1.9037552E-1,4.732405E-1,-8.999536E-2,1.2835561E0,-7.752284E-2,1.5385494E-1,1.3608763E0,1.6104485E-1,3.155624E-2,-2.1317685E-2,9.5527336E-2,3.8602017E-2,1.4380725E-1],"categories":[],"categories_nodes":[],"categories_segments":[],"categories_sizes":[],"default_left":[0,0,0,0,0,0,0,0,0,0,0,0,0,0,0,0,0,0,0,0,0],"id":19,"left_children":[1,3,5,7,-1,9,-1,-1,11,13,-1,15,-1,17,19,-1,-1,-1,-1,-1,-1],"loss_changes":[3.8202065E1,2.5716095E0,3.553056E1,4.6584806E0,0E0,1.5187059E1,0E0,0E0,8.164861E0,1.705441E1,0E0,6.190038E-1,0E0,1.37078E1,6.478958E-1,0E0,0E0,0E0,0E0,0E0,0E0],"parents":[2147483647,0,0,1,1,2,2,3,3,5,5,8,8,9,9,11,11,13,13,14,14],"right_children":[2,4,6,8,-1,10,-1,-1,12,14,-1,16,-1,18,20,-1,-1,-1,-1,-1,-1],"split_conditions":[-2.2586492E-1,-4.913447E-1,-4.2980734E-1,-3.6749774E-1,-9.930356E-2,2.3690607E-1,-1.0024209E-1,-9.099936E-2,-3.585785E-1,-1.3622034E-1,-8.999536E-2,-3.9081213E-1,-7.752284E-2,-1.7425847E-1,-5.2622207E-2,1.6104485E-1,3.155624E-2,-2.1317685E-2,9.5527336E-2,3.8602017E-2,1.4380725E-1],"split_indices":[67,39,0,66,0,18,0,0,66,27,0,1,0,36,19,0,0,0,0,0,0],"split_type":[0,0,0,0,0,0,0,0,0,0,0,0,0,0,0,0,0,0,0,0,0],"sum_hessian":[2.215739E2,1.23945435E2,9.762846E1,1.4738677E1,1.0920676E2,6.8237526E1,2.939094E1,8.946378E0,5.7922993E0,5.9895607E1,8.341915E0,2.562247E0,3.230052E0,4.490971E1,1.49859E1,1.4192634E0,1.1429838E0,3.1306177E1,1.3603532E1,1.5399134E0,1.3445987E1],"tree_param":{"num_deleted":"0","num_feature":"78","num_nodes":"21","size_leaf_vector":"1"}},{"base_weights":[-5.57869E-1,-9.32754E-1,-9.686666E-2,-4.7199255E-1,-9.919011E-2,2.7697426E-1,-1.0001107E-1,-9.007E-2,1.8936457E-1,4.528443E-1,-8.723899E-2,1.1713433E0,-7.603473E-2,6.241212E-1,-8.6770035E-2,1.4636147E-1,2.9477868E-2,-4.142673E-3,1.347916E-1],"categories":[],"categories_nodes":[],"categories_segments":[],"categories_sizes":[],"default_left":[0,0,0,0,0,0,0,0,0,0,0,0,0,0,0,0,0,0,0],"id":20,"left_children":[1,3,5,7,-1,9,-1,-1,11,13,-1,15,-1,17,-1,-1,-1,-1,-1],"loss_changes":[3.5598404E1,2.6324768E0,3.1927021E1,4.3813286E0,0E0,1.3953724E1,0E0,0E0,7.1083364E0,1.3848277E1,0E0,5.09171E-1,0E0,2.5423115E1,0E0,0E0,0E0,0E0,0E0],"parents":[2147483647,0,0,1,1,2,2,3,3,5,5,8,8,9,9,11,11,13,13],"right_children":[2,4,6,8,-1,10,-1,-1,12,14,-1,16,-1,18,-1,-1,-1,-1,-1],"split_conditions":[-2.2586492E-1,-4.913447E-1,-4.2980734E-1,-3.6749774E-1,-9.919011E-2,-1.3117684E-1,-1.0001107E-1,-9.007E-2,-3.585785E-1,2.3690607E-1,-8.723899E-2,-3.9081213E-1,-7.603473E-2,-2.2799705E-1,-8.6770035E-2,1.4636147E-1,2.9477868E-2,-4.142673E-3,1.347916E-1],"split_indices":[67,39,0,66,0,24,0,0,66,18,0,1,0,17,0,0,0,0,0],"split_type":[0,0,0,0,0,0,0,0,0,0,0,0,0,0,0,0,0,0,0],"sum_hessian":[2.0550487E2,1.1277414E2,9.273073E1,1.3851292E1,9.892285E1,6.6076065E1,2.6654663E1,8.184201E0,5.6670904E0,5.7832783E1,8.243282E0,2.6714795E0,2.9956112E0,5.1659794E1,6.1729884E0,1.5012153E0,1.1702641E0,2.740393E1,2.4255861E1],"tree_param":{"num_deleted":"0","num_feature":"78","num_nodes":"19","size_leaf_vector":"1"}},{"base_weights":[-5.4737824E-1,-9.272839E-1,-9.482761E-2,-4.5193154E-1,-9.9069156E-2,2.6158184E-1,-9.9739514E-2,-8.909667E-2,1.8678159E-1,-8.8265866E-2,4.2596936E-1,1.0737783E0,-7.452794E-2,5.697388E-1,-8.042499E-2,1.3384783E-1,2.7542163E-2,7.38399E-2,-7.323002E-2],"categories":[],"categories_nodes":[],"categories_segments":[],"categories_sizes":[],"default_left":[0,0,0,0,0,0,0,0,0,0,0,0,0,0,0,0,0,0,0],"id":21,"left_children":[1,3,5,7,-1,9,-1,-1,11,-1,13,15,-1,17,-1,-1,-1,-1,-1],"loss_changes":[3.272853E1,2.6764374E0,2.8640772E1,4.1028676E0,0E0,1.2421787E1,0E0,0E0,6.2114E0,0E0,1.0481259E1,4.2664957E-1,0E0,1.1811874E1,0E0,0E0,0E0,0E0,0E0],"parents":[2147483647,0,0,1,1,2,2,3,3,5,5,8,8,10,10,11,11,13,13],"right_children":[2,4,6,8,-1,10,-1,-1,12,-1,14,16,-1,18,-1,-1,-1,-1,-1],"split_conditions":[-2.2586492E-1,-4.913447E-1,-4.2980734E-1,-3.6749774E-1,-9.9069156E-2,-2.5225532E-1,-9.9739514E-2,-8.909667E-2,-3.585785E-1,-8.8265866E-2,-5.2553788E-2,-3.9081213E-1,-7.452794E-2,-5.5827074E-2,-8.042499E-2,1.3384783E-1,2.7542163E-2,7.38399E-2,-7.323002E-2],"split_indices":[67,39,0,66,0,69,0,0,66,0,19,1,0,14,0,0,0,0,0],"split_type":[0,0,0,0,0,0,0,0,0,0,0,0,0,0,0,0,0,0,0],"sum_hessian":[1.898749E2,1.02651955E2,8.722294E1,1.3037822E1,8.9614136E1,6.3039738E1,2.41832E1,7.4926343E0,5.545187E0,7.370066E0,5.566967E1,2.7633731E0,2.7818139E0,5.032529E1,5.3443794E0,1.5672125E0,1.1961606E0,4.4937218E1,5.3880734E0],"tree_param":{"num_deleted":"0","num_feature":"78","num_nodes":"19","size_leaf_vector":"1"}},{"base_weights":[-5.353051E-1,-9.215505E-1,-9.4531044E-2,-4.327108E-1,-9.893959E-2,2.397451E-1,-9.942318E-2,-7.9953146E-1,3.1415266E-1,4.1523203E-1,-8.1207985E-1,-8.869723E-2,-1.9543197E-2,8.674112E-2,-6.1486322E-2,7.153592E-2,1.0601598E-1,-1.7349565E-2,-8.818748E-2,-3.9299116E-2,8.594012E-2],"categories":[],"categories_nodes":[],"categories_segments":[],"categories_sizes":[],"default_left":[0,0,0,0,0,0,0,0,0,0,0,0,0,0,0,0,0,0,0,0,0],"id":22,"left_children":[1,3,5,7,-1,9,-1,11,13,15,17,-1,-1,-1,-1,19,-1,-1,-1,-1,-1],"loss_changes":[3.0129505E1,2.7053757E0,2.550322E1,3.8927162E0,0E0,1.1791498E1,0E0,3.1241798E-1,3.1526008E0,1.1859211E1,2.5754595E-1,0E0,0E0,0E0,0E0,1.3585487E1,0E0,0E0,0E0,0E0,0E0],"parents":[2147483647,0,0,1,1,2,2,3,3,5,5,7,7,8,8,9,9,10,10,15,15],"right_children":[2,4,6,8,-1,10,-1,12,14,16,18,-1,-1,-1,-1,20,-1,-1,-1,-1,-1],"split_conditions":[-2.2586492E-1,-4.913447E-1,-4.2980734E-1,-1.31529E-1,-9.893959E-2,-1.313865E-1,-9.942318E-2,2.020439E0,-4.2980734E-1,-1.3149893E-1,-1.3065666E-1,-8.869723E-2,-1.9543197E-2,8.674112E-2,-6.1486322E-2,-1.7425847E-1,1.0601598E-1,-1.7349565E-2,-8.818748E-2,-3.9299116E-2,8.594012E-2],"split_indices":[67,39,0,24,0,24,0,36,0,24,24,0,0,0,0,36,0,0,0,0,0],"split_type":[0,0,0,0,0,0,0,0,0,0,0,0,0,0,0,0,0,0,0,0,0],"sum_hessian":[1.7648701E2,9.348041E1,8.30066E1,1.2291997E1,8.118841E1,6.1055485E1,2.1951117E1,8.196018E0,4.0959787E0,5.2844166E1,8.211317E0,6.7506366E0,1.4453814E0,2.6087165E0,1.4872621E0,3.5197544E1,1.7646622E1,1.1524876E0,7.0588293E0,2.2457657E1,1.2739887E1],"tree_param":{"num_deleted":"0","num_feature":"78","num_nodes":"21","size_leaf_vector":"1"}},{"base_weights":[-5.251079E-1,-9.150026E-1,-9.1910295E-2,-4.156292E-1,-9.880028E-2,2.2882733E-1,-9.905806E-2,-8.734026E-2,1.9732752E-1,3.884081E-1,-8.769768E-2,9.995209E-1,-7.3177926E-2,-1.0095904E-1,8.866226E-1,2.6879296E-2,1.2091291E-1,-9.537761E-2,7.815655E-2,1.3219002E-1,-8.34946E-2],"categories":[],"categories_nodes":[],"categories_segments":[],"categories_sizes":[],"default_left":[0,0,0,0,0,0,0,0,0,0,0,0,0,0,0,0,0,0,0,0,0],"id":23,"left_children":[1,3,5,7,-1,9,-1,-1,11,13,-1,15,-1,17,19,-1,-1,-1,-1,-1,-1],"loss_changes":[2.764521E1,2.7351608E0,2.296292E1,3.744902E0,0E0,1.074235E1,0E0,0E0,5.3964767E0,1.2817436E1,0E0,2.54215E-1,0E0,2.1242449E1,2.0565012E1,0E0,0E0,0E0,0E0,0E0,0E0],"parents":[2147483647,0,0,1,1,2,2,3,3,5,5,8,8,9,9,11,11,13,13,14,14],"right_children":[2,4,6,8,-1,10,-1,-1,12,14,-1,16,-1,18,20,-1,-1,-1,-1,-1,-1],"split_conditions":[-2.2586492E-1,-4.913447E-1,-4.2980734E-1,-3.6749774E-1,-9.880028E-2,2.3690607E-1,-9.905806E-2,-8.734026E-2,-4.2980734E-1,-2.2799705E-1,-8.769768E-2,-1.3152689E-1,-7.3177926E-2,-1.6920109E-1,-1.3065666E-1,2.6879296E-2,1.2091291E-1,-9.537761E-2,7.815655E-2,1.3219002E-1,-8.34946E-2],"split_indices":[67,39,0,66,0,18,0,0,0,17,0,24,0,15,24,0,0,0,0,0,0],"split_type":[0,0,0,0,0,0,0,0,0,0,0,0,0,0,0,0,0,0,0,0,0],"sum_hessian":[1.6317447E2,8.529419E1,7.788029E1,1.1732058E1,7.3562126E1,5.7944958E1,1.9935326E1,6.4729643E0,5.2590938E0,5.120432E1,6.7406406E0,2.781635E0,2.4774585E0,2.623377E1,2.4970549E1,1.1288034E0,1.6528317E0,1.3300376E1,1.2933394E1,2.0116493E1,4.8540554E0],"tree_param":{"num_deleted":"0","num_feature":"78","num_nodes":"21","size_leaf_vector":"1"}},{"base_weights":[-5.19032E-1,-9.0849507E-1,-9.239245E-2,-3.9732176E-1,-9.865001E-2,2.1999384E-1,-9.864049E-2,-8.624617E-2,1.9095223E-1,3.7578967E-1,-8.6710356E-2,9.582847E-1,-7.141539E-2,9.0923004E-2,1.2033123E0,1.16508424E-1,2.6930958E-2,-2.5069008E-2,7.5907275E-2,2.2815434E-2,1.2920995E-1],"categories":[],"categories_nodes":[],"categories_segments":[],"categories_sizes":[],"default_left":[0,0,0,0,0,0,0,0,0,0,0,0,0,0,0,0,0,0,0,0,0],"id":24,"left_children":[1,3,5,7,-1,9,-1,-1,11,13,-1,15,-1,17,19,-1,-1,-1,-1,-1,-1],"loss_changes":[2.498582E1,2.7485962E0,2.0636398E1,3.4761891E0,0E0,9.640983E0,0E0,0E0,4.9643106E0,1.1395257E1,0E0,2.2225237E-1,0E0,8.72394E0,7.802143E-1,0E0,0E0,0E0,0E0,0E0,0E0],"parents":[2147483647,0,0,1,1,2,2,3,3,5,5,8,8,9,9,11,11,13,13,14,14],"right_children":[2,4,6,8,-1,10,-1,-1,12,14,-1,16,-1,18,20,-1,-1,-1,-1,-1,-1],"split_conditions":[-2.2586492E-1,-4.913447E-1,-4.2980734E-1,-3.6749774E-1,-9.865001E-2,1.2632519E-1,-9.864049E-2,-8.624617E-2,-3.585785E-1,-1.3622034E-1,-8.6710356E-2,-3.9081213E-1,-7.141539E-2,-1.7425847E-1,-5.2622207E-2,1.16508424E-1,2.6930958E-2,-2.5069008E-2,7.5907275E-2,2.2815434E-2,1.2920995E-1],"split_indices":[67,39,0,66,0,28,0,0,66,27,0,1,0,36,19,0,0,0,0,0,0],"split_type":[0,0,0,0,0,0,0,0,0,0,0,0,0,0,0,0,0,0,0,0,0],"sum_hessian":[1.4987688E2,7.776173E1,7.211515E1,1.110212E1,6.665961E1,5.400027E1,1.8114878E1,5.939641E0,5.162479E0,4.7803673E1,6.1965985E0,2.762082E0,2.4003968E0,3.63875E1,1.1416172E1,1.5929191E0,1.1691629E0,2.449066E1,1.1896839E1,1.2505833E0,1.0165589E1],"tree_param":{"num_deleted":"0","num_feature":"78","num_nodes":"21","size_leaf_vector":"1"}},{"base_weights":[-5.0445634E-1,-9.018391E-1,-8.770057E-2,-3.800218E-1,-9.8487474E-2,2.069183E-1,-9.816716E-2,2.044644E-1,-8.572124E-2,1.121927E-1,2.0619662E-1,-6.952401E-2,9.001706E-1,2.5686625E-1,-8.50337E-2,2.4929726E-2,1.08100176E-1,-9.281214E-3,9.354719E-2],"categories":[],"categories_nodes":[],"categories_segments":[],"categories_sizes":[],"default_left":[0,0,0,0,0,0,0,0,0,0,0,0,0,0,0,0,0,0,0],"id":25,"left_children":[1,3,5,7,-1,9,-1,11,-1,13,-1,-1,15,17,-1,-1,-1,-1,-1],"loss_changes":[2.3221375E1,2.7416763E0,1.8581968E1,3.382937E0,0E0,9.136278E0,0E0,4.3667727E0,0E0,7.4285502E0,0E0,0E0,1.7848992E-1,1.09500885E1,0E0,0E0,0E0,0E0,0E0],"parents":[2147483647,0,0,1,1,2,2,3,3,5,5,7,7,9,9,12,12,13,13],"right_children":[2,4,6,8,-1,10,-1,12,-1,14,-1,-1,16,18,-1,-1,-1,-1,-1],"split_conditions":[-2.2586492E-1,-4.913447E-1,-4.2980734E-1,-4.2980734E-1,-9.8487474E-2,3.9422386E0,-9.816716E-2,-3.6749774E-1,-8.572124E-2,-1.3102934E-1,2.0619662E-1,-6.952401E-2,-1.3152689E-1,-1.3149893E-1,-8.50337E-2,2.4929726E-2,1.08100176E-1,-9.281214E-3,9.354719E-2],"split_indices":[67,39,0,0,0,13,0,66,0,24,0,0,24,24,0,0,0,0,0],"split_type":[0,0,0,0,0,0,0,0,0,0,0,0,0,0,0,0,0,0,0],"sum_hessian":[1.3969348E2,7.091298E1,6.87805E1,1.0500673E1,6.04123E1,5.2309742E1,1.6470762E1,4.9766073E0,5.5240664E0,5.0777344E1,1.5323992E0,2.170427E0,2.80618E0,4.4779823E1,5.9975214E0,1.127291E0,1.678889E0,3.0121672E1,1.4658151E1],"tree_param":{"num_deleted":"0","num_feature":"78","num_nodes":"19","size_leaf_vector":"1"}},{"base_weights":[-4.883848E-1,-8.946461E-1,-8.167851E-2,-3.6316308E-1,-9.8311335E-2,1.956475E-1,-9.763529E-2,1.9651398E-1,-8.451286E-2,3.4209344E-1,-8.547326E-2,-6.795781E-2,8.337305E-1,-1.1508464E-1,8.377395E-1,2.3389578E-2,1.0011518E-1,-9.419625E-2,6.9308415E-2,1.2414626E-1,-8.0482654E-2],"categories":[],"categories_nodes":[],"categories_segments":[],"categories_sizes":[],"default_left":[0,0,0,0,0,0,0,0,0,0,0,0,0,0,0,0,0,0,0,0,0],"id":26,"left_children":[1,3,5,7,-1,9,-1,11,-1,13,-1,-1,15,17,19,-1,-1,-1,-1,-1,-1],"loss_changes":[2.1666782E1,2.7331696E0,1.6777975E1,3.1236842E0,0E0,8.27059E0,0E0,3.8517036E0,0E0,1.0572856E1,0E0,0E0,1.5305305E-1,1.7312004E1,1.5790045E1,0E0,0E0,0E0,0E0,0E0,0E0],"parents":[2147483647,0,0,1,1,2,2,3,3,5,5,7,7,9,9,12,12,13,13,14,14],"right_children":[2,4,6,8,-1,10,-1,12,-1,14,-1,-1,16,18,20,-1,-1,-1,-1,-1,-1],"split_conditions":[-2.2586492E-1,-4.913447E-1,-4.2980734E-1,-4.2980734E-1,-9.8311335E-2,1.2632519E-1,-9.763529E-2,-3.6749774E-1,-8.451286E-2,-2.2799705E-1,-8.547326E-2,-6.795781E-2,-1.3152689E-1,-1.6920109E-1,-1.3065666E-1,2.3389578E-2,1.0011518E-1,-9.419625E-2,6.9308415E-2,1.2414626E-1,-8.0482654E-2],"split_indices":[67,39,0,0,0,28,0,66,0,17,0,0,24,15,24,0,0,0,0,0,0],"split_type":[0,0,0,0,0,0,0,0,0,0,0,0,0,0,0,0,0,0,0,0,0],"sum_hessian":[1.3057405E2,6.472257E1,6.585149E1,9.964444E0,5.4758125E1,5.0865738E1,1.4985748E1,4.884564E0,5.0798798E0,4.523351E1,5.632226E0,2.0287757E0,2.8557885E0,2.3929256E1,2.1304255E1,1.1462103E0,1.709578E0,1.1745894E1,1.2183362E1,1.7297043E1,4.0072126E0],"tree_param":{"num_deleted":"0","num_feature":"78","num_nodes":"21","size_leaf_vector":"1"}},{"base_weights":[-4.8157138E-1,-8.870475E-1,-8.257943E-2,-3.4713313E-1,-9.812014E-2,1.8634492E-1,-9.7042605E-2,1.8807007E-1,-8.3262116E-2,3.2947317E-1,-8.438873E-2,7.893778E-2,-6.757339E-2,-1.1290376E-1,8.13667E-1,-9.3271464E-2,6.47889E-2,1.2098787E-1,-7.929293E-2],"categories":[],"categories_nodes":[],"categories_segments":[],"categories_sizes":[],"default_left":[0,0,0,0,0,0,0,0,0,0,0,0,0,0,0,0,0,0,0],"id":27,"left_children":[1,3,5,7,-1,9,-1,11,-1,13,-1,-1,-1,15,17,-1,-1,-1,-1],"loss_changes":[1.9569258E1,2.7153282E0,1.5055512E1,2.8781056E0,0E0,7.452414E0,0E0,3.5447893E0,0E0,9.396295E0,0E0,0E0,0E0,1.5309896E1,1.4238492E1,0E0,0E0,0E0,0E0],"parents":[2147483647,0,0,1,1,2,2,3,3,5,5,7,7,9,9,13,13,14,14],"right_children":[2,4,6,8,-1,10,-1,12,-1,14,-1,-1,-1,16,18,-1,-1,-1,-1],"split_conditions":[-2.2586492E-1,-4.913447E-1,-4.2980734E-1,-4.2980734E-1,-9.812014E-2,2.3690607E-1,-9.7042605E-2,-1.1365939E-2,-8.3262116E-2,-2.2799705E-1,-8.438873E-2,7.893778E-2,-6.757339E-2,-1.6920109E-1,-1.3065666E-1,-9.3271464E-2,6.47889E-2,1.2098787E-1,-7.929293E-2],"split_indices":[67,39,0,0,0,18,0,3,0,17,0,0,0,15,24,0,0,0,0],"split_type":[0,0,0,0,0,0,0,0,0,0,0,0,0,0,0,0,0,0,0],"sum_hessian":[1.20413635E2,5.9114857E1,6.1298782E1,9.474022E0,4.9640835E1,4.7654564E1,1.3644217E1,4.797672E0,4.6763496E0,4.2438816E1,5.2157507E0,2.8794217E0,1.9182503E0,2.257777E1,1.9861044E1,1.07586E1,1.181917E1,1.6130053E1,3.7309916E0],"tree_param":{"num_deleted":"0","num_feature":"78","num_nodes":"19","size_leaf_vector":"1"}},{"base_weights":[-4.7450894E-1,-8.789944E-1,-8.354026E-2,-3.3430594E-1,-9.791234E-2,1.766519E-1,-9.638744E-2,-8.212952E-2,1.9704647E-1,-8.3270475E-2,3.1858298E-1,8.531558E-1,-6.7186825E-2,-9.048828E-2,4.4729796E-1,1.0083481E-1,2.6266454E-2,5.7792842E-2,-7.687494E-2],"categories":[],"categories_nodes":[],"categories_segments":[],"categories_sizes":[],"default_left":[0,0,0,0,0,0,0,0,0,0,0,0,0,0,0,0,0,0,0],"id":28,"left_children":[1,3,5,7,-1,9,-1,-1,11,-1,13,15,-1,-1,17,-1,-1,-1,-1],"loss_changes":[1.7682693E1,2.6767502E0,1.3501123E1,2.7679892E0,0E0,6.8218307E0,0E0,0E0,3.7788522E0,0E0,6.837455E0,6.9108725E-2,0E0,0E0,6.421754E0,0E0,0E0,0E0,0E0],"parents":[2147483647,0,0,1,1,2,2,3,3,5,5,8,8,10,10,11,11,14,14],"right_children":[2,4,6,8,-1,10,-1,-1,12,-1,14,16,-1,-1,18,-1,-1,-1,-1],"split_conditions":[-2.2586492E-1,-4.913447E-1,-4.2980734E-1,-3.6749774E-1,-9.791234E-2,-2.5225532E-1,-9.638744E-2,-8.212952E-2,-3.585785E-1,-8.3270475E-2,-4.3172258E-1,-3.9081213E-1,-6.7186825E-2,-9.048828E-2,-5.250438E-2,1.0083481E-1,2.6266454E-2,5.7792842E-2,-7.687494E-2],"split_indices":[67,39,0,66,0,69,0,0,66,0,0,1,0,0,19,0,0,0,0],"split_type":[0,0,0,0,0,0,0,0,0,0,0,0,0,0,0,0,0,0,0],"sum_hessian":[1.1128022E2,5.408112E1,5.7199097E1,9.071597E0,4.5009525E1,4.476705E1,1.2432046E1,4.448676E0,4.6229205E0,4.918894E0,3.9848156E1,2.6443403E0,1.9785802E0,3.2191613E0,3.6628994E1,1.5336305E0,1.1107099E0,3.3549755E1,3.0792394E0],"tree_param":{"num_deleted":"0","num_feature":"78","num_nodes":"19","size_leaf_vector":"1"}},{"base_weights":[-4.6161672E-1,-1.5819547E-1,-9.750847E-2,1.4534216E-1,-9.735838E-2,-8.0099684E-1,3.0904752E-1,-9.6340284E-2,1.248299E-2,4.9918646E-1,-7.849724E-2,6.538104E-2,-7.8265905E-2],"categories":[],"categories_nodes":[],"categories_segments":[],"categories_sizes":[],"default_left":[0,0,0,0,0,0,0,0,0,0,0,0,0],"id":29,"left_children":[1,3,-1,5,-1,7,9,-1,-1,11,-1,-1,-1],"loss_changes":[1.6271154E1,1.6838451E1,0E0,7.9984484E0,0E0,1.2715449E0,9.414434E0,0E0,0E0,7.9569597E0,0E0,0E0,0E0],"parents":[2147483647,0,0,1,1,3,3,5,5,6,6,9,9],"right_children":[2,4,-1,6,-1,8,10,-1,-1,12,-1,-1,-1],"split_conditions":[-4.545344E-1,-4.2980734E-1,-9.750847E-2,-5.2622207E-2,-9.735838E-2,1.2549233E0,-1.313865E-1,-9.6340284E-2,1.248299E-2,2.3690607E-1,-7.849724E-2,6.538104E-2,-7.8265905E-2],"split_indices":[7,0,0,19,0,8,24,0,0,18,0,0,0],"split_type":[0,0,0,0,0,0,0,0,0,0,0,0,0],"sum_hessian":[1.0442821E2,6.6462135E1,3.7966072E1,4.903139E1,1.7430744E1,6.6568604E0,4.237453E1,5.628873E0,1.0279878E0,3.6563557E1,5.810975E0,3.3065002E1,3.4985547E0],"tree_param":{"num_deleted":"0","num_feature":"78","num_nodes":"13","size_leaf_vector":"1"}},{"base_weights":[-4.493342E-1,-1.54923E-1,-9.72463E-2,1.3016121E-1,-9.678935E-2,-7.8034115E-1,2.8179067E-1,-9.4886415E-2,1.1855825E-2,4.5553666E-1,-7.649863E-2,6.12518E-2,-7.955347E-2],"categories":[],"categories_nodes":[],"categories_segments":[],"categories_sizes":[],"default_left":[0,0,0,0,0,0,0,0,0,0,0,0,0],"id":30,"left_children":[1,3,-1,5,-1,7,9,-1,-1,11,-1,-1,-1],"loss_changes":[1.5088915E1,1.5075969E1,0E0,6.934971E0,0E0,1.2045555E0,8.065393E0,0E0,0E0,7.7572E0,0E0,0E0,0E0],"parents":[2147483647,0,0,1,1,3,3,5,5,6,6,9,9],"right_children":[2,4,-1,6,-1,8,10,-1,-1,12,-1,-1,-1],"split_conditions":[-4.545344E-1,-4.2980734E-1,-9.72463E-2,-5.2622207E-2,-9.678935E-2,1.2549233E0,-1.313865E-1,-9.4886415E-2,1.1855825E-2,-5.200684E-2,-7.649863E-2,6.12518E-2,-7.955347E-2],"split_indices":[7,0,0,19,0,8,24,0,0,19,0,0,0],"split_type":[0,0,0,0,0,0,0,0,0,0,0,0,0],"sum_hessian":[9.794866E1,6.350492E1,3.4443737E1,4.763919E1,1.5865733E1,6.2090163E0,4.1430172E1,5.1819377E0,1.0270789E0,3.601685E1,5.4133234E0,3.2454895E1,3.561956E0],"tree_param":{"num_deleted":"0","num_feature":"78","num_nodes":"13","size_leaf_vector":"1"}},{"base_weights":[-4.3667623E-1,-1.5161087E-1,-9.696103E-2,1.1571915E-1,-9.617108E-2,2.658562E-1,-8.128574E-2,7.6879704E-1,-2.1993518E-1,1.1149792E-1,-6.926159E-2,4.3341916E-2,-9.274251E-2],"categories":[],"categories_nodes":[],"categories_segments":[],"categories_sizes":[],"default_left":[0,0,0,0,0,0,0,0,0,0,0,0,0],"id":31,"left_children":[1,3,-1,5,-1,7,-1,9,11,-1,-1,-1,-1],"loss_changes":[1.3995447E1,1.3502491E1,0E0,6.822236E0,0E0,1.0319174E1,0E0,1.1211255E1,1.0529488E1,0E0,0E0,0E0,0E0],"parents":[2147483647,0,0,1,1,3,3,5,5,7,7,8,8],"right_children":[2,4,-1,6,-1,8,-1,10,12,-1,-1,-1,-1],"split_conditions":[-4.545344E-1,-4.2980734E-1,-9.696103E-2,1.1726858E-1,-9.617108E-2,-1.6806641E-1,-8.128574E-2,-1.3130096E-1,-3.1828517E-1,1.1149792E-1,-6.926159E-2,4.3341916E-2,-9.274251E-2],"split_indices":[7,0,0,18,0,37,0,24,18,0,0,0,0],"split_type":[0,0,0,0,0,0,0,0,0,0,0,0,0],"sum_hessian":[9.20908E1,6.0834843E1,3.1255953E1,4.6385086E1,1.4449755E1,4.05435E1,5.841589E0,1.9633907E1,2.0909592E1,1.6065369E1,3.568539E0,1.1072094E1,9.837498E0],"tree_param":{"num_deleted":"0","num_feature":"78","num_nodes":"13","size_leaf_vector":"1"}},{"base_weights":[-4.2782682E-1,-1.4934076E-1,-9.665068E-2,1.0662209E-1,-9.550244E-2,-9.35497E-2,2.314791E-1,4.0728572E-1,-7.93921E-2,5.7144474E-2,-6.7067064E-2],"categories":[],"categories_nodes":[],"categories_segments":[],"categories_sizes":[],"default_left":[0,0,0,0,0,0,0,0,0,0,0],"id":32,"left_children":[1,3,-1,5,-1,-1,7,9,-1,-1,-1],"loss_changes":[1.286493E1,1.2134841E1,0E0,6.0952578E0,0E0,0E0,7.741238E0,6.7159524E0,0E0,0E0,0E0],"parents":[2147483647,0,0,1,1,3,3,6,6,7,7],"right_children":[2,4,-1,6,-1,-1,8,10,-1,-1,-1],"split_conditions":[-4.545344E-1,-4.2980734E-1,-9.665068E-2,-4.3172258E-1,-9.550244E-2,-9.35497E-2,1.1726858E-1,-1.3144527E-1,-7.93921E-2,5.7144474E-2,-6.7067064E-2],"split_indices":[7,0,0,0,0,0,18,24,0,0,0],"split_type":[0,0,0,0,0,0,0,0,0,0,0],"sum_hessian":[8.571987E1,5.734893E1,2.8370943E1,4.418058E1,1.3168352E1,4.032315E0,4.0148266E1,3.4786808E1,5.361456E0,3.0597136E1,4.189673E0],"tree_param":{"num_deleted":"0","num_feature":"78","num_nodes":"11","size_leaf_vector":"1"}},{"base_weights":[-4.1515544E-1,-1.4632943E-1,-9.63132E-2,9.350095E-2,-9.478252E-2,-7.778459E-1,2.3403789E-1,-9.380672E-2,1.1344505E-3,7.66252E-2,1.199795E0,-1.370339E-2,8.590862E-2,4.431571E-2,1.705659E-1],"categories":[],"categories_nodes":[],"categories_segments":[],"categories_sizes":[],"default_left":[0,0,0,0,0,0,0,0,0,0,0,0,0,0,0],"id":33,"left_children":[1,3,-1,5,-1,7,9,-1,-1,11,13,-1,-1,-1,-1],"loss_changes":[1.1916696E1,1.0870787E1,0E0,5.5803514E0,0E0,8.1406E-1,5.7958326E0,0E0,0E0,5.8636723E0,1.2955995E0,0E0,0E0,0E0,0E0],"parents":[2147483647,0,0,1,1,3,3,5,5,6,6,9,9,10,10],"right_children":[2,4,-1,6,-1,8,10,-1,-1,12,14,-1,-1,-1,-1],"split_conditions":[-4.545344E-1,-4.2980734E-1,-9.63132E-2,-5.2622207E-2,-9.478252E-2,8.7755847E-1,1.678956E0,-9.380672E-2,1.1344505E-3,-1.2810035E-1,3.492477E0,-1.370339E-2,8.590862E-2,4.431571E-2,1.705659E-1],"split_indices":[7,0,0,19,0,6,40,0,0,15,13,0,0,0,0],"split_type":[0,0,0,0,0,0,0,0,0,0,0,0,0,0,0],"sum_hessian":[8.085188E1,5.5091946E1,2.5759937E1,4.308348E1,1.2008465E1,5.3538876E0,3.7729595E1,4.293564E0,1.0603236E0,3.336985E1,4.3597455E0,2.6860249E1,6.509601E0,2.498578E0,1.8611676E0],"tree_param":{"num_deleted":"0","num_feature":"78","num_nodes":"15","size_leaf_vector":"1"}},{"base_weights":[-3.9575619E-1,-7.855807E-1,-2.1658435E-2,-9.657005E-2,-1.9198832E-1,2.4188435E-1,-9.2369676E-2,-8.66754E-2,2.0021202E-1,4.4119492E-1,-8.1999846E-2,5.7538724E-1,-6.318586E-2,6.609379E-1,-6.7357004E-1,-4.8870305E-3,8.720082E-2,8.858686E-2,-7.415279E-2,-7.7621706E-2,-1.2801337E-2],"categories":[],"categories_nodes":[],"categories_segments":[],"categories_sizes":[],"default_left":[0,0,0,0,0,0,0,0,0,0,0,0,0,0,0,0,0,0,0,0,0],"id":34,"left_children":[1,3,5,-1,7,9,-1,-1,11,13,-1,15,-1,17,19,-1,-1,-1,-1,-1,-1],"loss_changes":[1.1315136E1,3.8801517E0,9.894474E0,0E0,2.8465273E0,7.1927605E0,0E0,0E0,2.6111968E0,7.2613163E0,0E0,1.058415E0,0E0,8.148459E0,1.8494701E-1,0E0,0E0,0E0,0E0,0E0,0E0],"parents":[2147483647,0,0,1,1,2,2,4,4,5,5,8,8,9,9,11,11,13,13,14,14],"right_children":[2,4,6,-1,8,10,-1,-1,12,14,-1,16,-1,18,20,-1,-1,-1,-1,-1,-1],"split_conditions":[-3.6749774E-1,1.6160254E-1,-4.2980734E-1,-9.657005E-2,-5.2616883E-2,2.3690607E-1,-9.2369676E-2,-8.66754E-2,-4.2980734E-1,-5.5827074E-2,-8.1999846E-2,-1.6268204E-1,-6.318586E-2,-1.3065666E-1,-2.7417693E-1,-4.8870305E-3,8.720082E-2,8.858686E-2,-7.415279E-2,-7.7621706E-2,-1.2801337E-2],"split_indices":[66,37,0,0,19,18,0,0,0,14,0,36,0,24,22,0,0,0,0,0,0],"split_type":[0,0,0,0,0,0,0,0,0,0,0,0,0,0,0,0,0,0,0,0,0],"sum_hessian":[7.670662E1,3.702509E1,3.968153E1,2.792473E1,9.100361E0,3.1275743E1,8.405787E0,2.900384E0,6.199977E0,2.6825277E1,4.4504657E0,4.485832E0,1.7141448E0,2.274824E1,4.077038E0,1.7139531E0,2.771879E0,1.9921528E1,2.826711E0,3.0755682E0,1.0014696E0],"tree_param":{"num_deleted":"0","num_feature":"78","num_nodes":"21","size_leaf_vector":"1"}},{"base_weights":[-3.882322E-1,-1.3493972E-1,-9.555726E-2,8.064135E-2,-9.321136E-2,-9.098127E-2,1.9580804E-1,3.418483E-1,-8.077858E-2,4.8489057E-2,-7.7519156E-2],"categories":[],"categories_nodes":[],"categories_segments":[],"categories_sizes":[],"default_left":[0,0,0,0,0,0,0,0,0,0,0],"id":35,"left_children":[1,3,-1,5,-1,-1,7,9,-1,-1,-1],"loss_changes":[1.033092E1,8.923336E0,0E0,4.9058757E0,0E0,0E0,5.838641E0,5.781994E0,0E0,0E0,0E0],"parents":[2147483647,0,0,1,1,3,3,6,6,7,7],"right_children":[2,4,-1,6,-1,-1,8,10,-1,-1,-1],"split_conditions":[-4.545344E-1,-4.2980734E-1,-9.555726E-2,-4.3172258E-1,-9.321136E-2,-9.098127E-2,2.3690607E-1,-5.200684E-2,-8.077858E-2,4.8489057E-2,-7.7519156E-2],"split_indices":[7,0,0,0,0,0,18,19,0,0,0],"split_type":[0,0,0,0,0,0,0,0,0,0,0],"sum_hessian":[7.178805E1,5.048608E1,2.1301964E1,4.044682E1,1.0039261E1,3.4943993E0,3.695242E1,3.2833897E1,4.118525E0,2.9608324E1,3.2255714E0],"tree_param":{"num_deleted":"0","num_feature":"78","num_nodes":"11","size_leaf_vector":"1"}},{"base_weights":[-3.763089E-1,-1.3316368E-1,-9.512618E-2,6.853335E-2,-9.233651E-2,-7.7095664E-1,2.0185715E-1,-9.241452E-2,-3.6281229E-3,3.3310863E-1,-7.667751E-2,-8.529954E-2,4.5055177E-2],"categories":[],"categories_nodes":[],"categories_segments":[],"categories_sizes":[],"default_left":[0,0,0,0,0,0,0,0,0,0,0,0,0],"id":36,"left_children":[1,3,-1,5,-1,7,9,-1,-1,11,-1,-1,-1],"loss_changes":[9.527596E0,7.984056E0,0E0,4.691042E0,0E0,6.1484313E-1,4.8019047E0,0E0,0E0,4.8685055E0,0E0,0E0,0E0],"parents":[2147483647,0,0,1,1,3,3,5,5,6,6,9,9],"right_children":[2,4,-1,6,-1,8,10,-1,-1,12,-1,-1,-1],"split_conditions":[-4.545344E-1,-4.2980734E-1,-9.512618E-2,-5.2622207E-2,-9.233651E-2,6.122079E-1,-1.3102934E-1,-9.241452E-2,-3.6281229E-3,-4.3172258E-1,-7.667751E-2,-8.529954E-2,4.5055177E-2],"split_indices":[7,0,0,19,0,25,24,0,0,0,0,0,0],"split_type":[0,0,0,0,0,0,0,0,0,0,0,0,0],"sum_hessian":[6.805917E1,4.8697018E1,1.9362158E1,3.9522312E1,9.1747055E0,4.7610674E0,3.4761246E1,3.7262123E0,1.0348551E0,3.1190922E1,3.5703247E0,2.2458773E0,2.8945044E1],"tree_param":{"num_deleted":"0","num_feature":"78","num_nodes":"13","size_leaf_vector":"1"}},{"base_weights":[-3.63732E-1,-9.517719E-2,-1.29347E-1,-6.2899673E-1,2.1691585E-1,-9.2552274E-2,1.3143287E-2,-7.389086E-1,4.3818808E-1,-7.8305684E-2,3.5956198E-1,-8.825168E-2,-2.4712465E-3,5.963769E-1,-6.404891E-2,7.535358E-2,-5.946827E-2,7.403903E-2,-6.456407E-2],"categories":[],"categories_nodes":[],"categories_segments":[],"categories_sizes":[],"default_left":[0,0,0,0,0,0,0,0,0,0,0,0,0,0,0,0,0,0,0],"id":37,"left_children":[1,-1,3,5,7,-1,9,11,13,-1,15,-1,-1,17,-1,-1,-1,-1,-1],"loss_changes":[8.947631E0,0E0,8.477856E0,3.8188567E0,6.504053E0,0E0,2.295443E0,5.797682E-1,4.5379744E0,0E0,2.6185114E0,0E0,0E0,4.3699865E0,0E0,0E0,0E0,0E0,0E0],"parents":[2147483647,0,0,2,2,3,3,4,4,6,6,7,7,8,8,10,10,13,13],"right_children":[2,-1,4,6,8,-1,10,12,14,-1,16,-1,-1,18,-1,-1,-1,-1,-1],"split_conditions":[1.0063272E0,-9.517719E-2,-3.6749774E-1,1.6160254E-1,-5.2622207E-2,-9.2552274E-2,-4.302451E-1,1.0156173E0,1.1726858E-1,-7.8305684E-2,-2.2389726E-1,-8.825168E-2,-2.4712465E-3,-1.3065666E-1,-6.404891E-2,7.535358E-2,-5.946827E-2,7.403903E-2,-6.456407E-2],"split_indices":[69,0,66,37,19,0,0,8,18,0,67,0,0,24,0,0,0,0,0],"split_type":[0,0,0,0,0,0,0,0,0,0,0,0,0,0,0,0,0,0,0],"sum_hessian":[6.481216E1,1.7598705E1,4.721345E1,1.8991951E1,2.8221502E1,1.2690466E1,6.301484E0,4.86536E0,2.3356142E1,1.5283433E0,4.773141E0,3.854609E0,1.0107508E0,2.075895E1,2.5971935E0,3.5272129E0,1.2459282E0,1.896394E1,1.7950094E0],"tree_param":{"num_deleted":"0","num_feature":"78","num_nodes":"19","size_leaf_vector":"1"}},{"base_weights":[-3.5482886E-1,-9.4647914E-2,-1.2925915E-1,-9.385372E-2,6.924337E-2,2.6686084E-1,-8.677086E-2,3.9728403E-1,-7.594807E-2,5.2211344E-2,-7.2618835E-2],"categories":[],"categories_nodes":[],"categories_segments":[],"categories_sizes":[],"default_left":[0,0,0,0,0,0,0,0,0,0,0],"id":38,"left_children":[1,-1,3,-1,5,7,-1,9,-1,-1,-1],"loss_changes":[8.18051E0,0E0,7.4865875E0,0E0,7.273225E0,4.6081343E0,0E0,4.4743085E0,0E0,0E0,0E0],"parents":[2147483647,0,0,2,2,4,4,5,5,7,7],"right_children":[2,-1,4,-1,6,8,-1,10,-1,-1,-1],"split_conditions":[1.0063272E0,-9.4647914E-2,-4.302451E-1,-9.385372E-2,-4.2980734E-1,-5.200684E-2,-8.677086E-2,-5.5727486E-2,-7.594807E-2,5.2211344E-2,-7.2618835E-2],"split_indices":[69,0,0,0,0,19,0,14,0,0,0],"split_type":[0,0,0,0,0,0,0,0,0,0,0],"sum_hessian":[6.1213043E1,1.6013926E1,4.519912E1,8.168549E0,3.703057E1,3.1171259E1,5.859312E0,2.8200562E1,2.9706974E0,2.5862265E1,2.3382967E0],"tree_param":{"num_deleted":"0","num_feature":"78","num_nodes":"11","size_leaf_vector":"1"}},{"base_weights":[-3.448894E-1,-9.753534E-2,-1.3602865E-1,6.7868374E-2,-9.110714E-2,-7.913703E-2,1.8912794E-1,4.8274696E-1,-1.7687134E-1,7.279874E-2,-5.603878E-2,4.8099123E-2,-8.9142255E-2],"categories":[],"categories_nodes":[],"categories_segments":[],"categories_sizes":[],"default_left":[0,0,0,0,0,0,0,0,0,0,0,0,0],"id":39,"left_children":[1,-1,3,5,-1,-1,7,9,11,-1,-1,-1,-1],"loss_changes":[7.6446586E0,0E0,7.25648E0,4.0021787E0,0E0,0E0,3.6542516E0,5.1905107E0,7.7218537E0,0E0,0E0,0E0,0E0],"parents":[2147483647,0,0,2,2,3,3,6,6,7,7,8,8],"right_children":[2,-1,4,6,-1,-1,8,10,12,-1,-1,-1,-1],"split_conditions":[-4.4888592E-1,-9.753534E-2,-4.2980734E-1,1.0063272E0,-9.110714E-2,-7.913703E-2,-1.6806641E-1,1.08550005E-1,-3.1828517E-1,7.279874E-2,-5.603878E-2,4.8099123E-2,-8.9142255E-2],"split_indices":[66,0,0,69,0,0,37,18,18,0,0,0,0],"split_type":[0,0,0,0,0,0,0,0,0,0,0,0,0],"sum_hessian":[5.806274E1,1.3535326E1,4.4527416E1,3.5975475E1,8.551939E0,3.7656975E0,3.2209778E1,1.7695093E1,1.4514684E1,1.4571466E1,3.1236277E0,7.727294E0,6.7873898E0],"tree_param":{"num_deleted":"0","num_feature":"78","num_nodes":"13","size_leaf_vector":"1"}},{"base_weights":[-3.3563474E-1,-9.690279E-2,-1.3398434E-1,5.9488785E-2,-9.015408E-2,-7.778784E-2,1.7404757E-1,-6.8374974E-1,2.8759465E-1,-8.593119E-2,-7.340999E-3,4.1272905E-2,-7.284143E-2],"categories":[],"categories_nodes":[],"categories_segments":[],"categories_sizes":[],"default_left":[0,0,0,0,0,0,0,0,0,0,0,0,0],"id":40,"left_children":[1,-1,3,5,-1,-1,7,9,11,-1,-1,-1,-1],"loss_changes":[7.0051446E0,0E0,6.5183487E0,3.5606902E0,0E0,0E0,3.3355765E0,3.7231374E-1,4.008454E0,0E0,0E0,0E0,0E0],"parents":[2147483647,0,0,2,2,3,3,6,6,7,7,8,8],"right_children":[2,-1,4,6,-1,-1,8,10,12,-1,-1,-1,-1],"split_conditions":[-4.4888592E-1,-9.690279E-2,-4.2980734E-1,1.0063272E0,-9.015408E-2,-7.778784E-2,-5.2622207E-2,-3.0294717E-3,-5.200684E-2,-8.593119E-2,-7.340999E-3,4.1272905E-2,-7.284143E-2],"split_indices":[66,0,0,69,0,0,19,68,19,0,0,0,0],"split_type":[0,0,0,0,0,0,0,0,0,0,0,0,0],"sum_hessian":[5.486249E1,1.2329496E1,4.2532997E1,3.4707092E1,7.8259025E0,3.4799798E0,3.1227114E1,3.0633264E0,2.8163788E1,2.0622137E0,1.0011127E0,2.5604092E1,2.5596952E0],"tree_param":{"num_deleted":"0","num_feature":"78","num_nodes":"13","size_leaf_vector":"1"}},{"base_weights":[-3.245864E-1,-9.6202664E-2,-1.3232395E-1,4.8089083E-2,-8.915051E-2,-4.162219E-2,1.12519704E-1,7.232128E-2,-7.930421E-2,2.0095667E-2,-7.6441124E-2],"categories":[],"categories_nodes":[],"categories_segments":[],"categories_sizes":[],"default_left":[0,0,0,0,0,0,0,0,0,0,0],"id":41,"left_children":[1,-1,3,5,-1,7,-1,9,-1,-1,-1],"loss_changes":[6.430773E0,0E0,5.8325114E0,3.438788E0,0E0,2.9143348E0,0E0,3.3709009E0,0E0,0E0,0E0],"parents":[2147483647,0,0,2,2,3,3,5,5,7,7],"right_children":[2,-1,4,6,-1,8,-1,10,-1,-1,-1],"split_conditions":[-4.4888592E-1,-9.6202664E-2,-4.2980734E-1,3.9422386E0,-8.915051E-2,-5.5843774E-2,1.12519704E-1,2.3690607E-1,-7.930421E-2,2.0095667E-2,-7.6441124E-2],"split_indices":[66,0,0,13,0,14,0,18,0,0,0],"split_type":[0,0,0,0,0,0,0,0,0,0,0],"sum_hessian":[5.251089E1,1.1240301E1,4.1270588E1,3.4102962E1,7.1676264E0,3.236839E1,1.734574E0,2.8891157E1,3.4772303E0,2.5699991E1,3.191166E0],"tree_param":{"num_deleted":"0","num_feature":"78","num_nodes":"11","size_leaf_vector":"1"}},{"base_weights":[-3.0981174E-1,-9.2275284E-2,-1.1461081E-1,-9.211924E-2,5.7656813E-2,2.0489268E-1,-8.14813E-2,5.7337266E-1,-1.5857252E-1,7.0087306E-2,-5.3667493E-2,-9.287677E-2,2.7773334E-2],"categories":[],"categories_nodes":[],"categories_segments":[],"categories_sizes":[],"default_left":[0,0,0,0,0,0,0,0,0,0,0,0,0],"id":42,"left_children":[1,-1,3,-1,5,7,-1,9,11,-1,-1,-1,-1],"loss_changes":[6.0479474E0,0E0,5.6320143E0,0E0,4.5378833E0,4.097024E0,0E0,2.5090451E0,5.581445E0,0E0,0E0,0E0,0E0],"parents":[2147483647,0,0,2,2,4,4,5,5,7,7,8,8],"right_children":[2,-1,4,-1,6,8,-1,10,12,-1,-1,-1,-1],"split_conditions":[1.0063272E0,-9.2275284E-2,-4.302451E-1,-9.211924E-2,-4.2980734E-1,-2.1944416E-1,-8.14813E-2,-5.5727486E-2,-1.3214251E-1,7.0087306E-2,-5.3667493E-2,-9.287677E-2,2.7773334E-2],"split_indices":[69,0,0,0,0,67,0,14,67,0,0,0,0],"split_type":[0,0,0,0,0,0,0,0,0,0,0,0,0],"sum_hessian":[5.0432323E1,1.1281291E1,3.915103E1,6.1250815E0,3.302595E1,2.8911993E1,4.1139593E0,1.4070173E1,1.4841819E1,1.2951204E1,1.1189688E0,4.9590597E0,9.882759E0],"tree_param":{"num_deleted":"0","num_feature":"78","num_nodes":"13","size_leaf_vector":"1"}},{"base_weights":[-2.9996064E-1,-6.986259E-1,-1.4803755E-2,-1.00424886E-1,-2.0079407E-1,8.7324E-2,-2.0068905E-1,-7.5836204E-2,2.0908818E-1,-8.4770256E-1,1.0253261E-1,5.3057444E-1,-3.9739963E-2,-9.138783E-2,-1.9518847E-2,6.7414576E-1,-5.2127516E-1,1.4724234E-2,6.234154E-2,-3.21704E-2,9.066271E-2,-8.357627E-2,3.4131866E-2],"categories":[],"categories_nodes":[],"categories_segments":[],"categories_sizes":[],"default_left":[0,0,0,0,0,0,0,0,0,0,0,0,0,0,0,0,0,0,0,0,0,0,0],"id":43,"left_children":[1,3,5,-1,7,-1,9,-1,11,13,15,17,-1,-1,-1,19,21,-1,-1,-1,-1,-1,-1],"loss_changes":[5.5802035E0,2.9151802E0,5.0765715E0,0E0,2.225058E0,0E0,5.0633273E0,0E0,1.3797754E0,1.7579126E-1,6.828058E0,6.2892556E-2,0E0,0E0,0E0,2.5869842E0,2.794313E0,0E0,0E0,0E0,0E0,0E0,0E0],"parents":[2147483647,0,0,1,1,2,2,4,4,6,6,8,8,9,9,10,10,11,11,15,15,16,16],"right_children":[2,4,6,-1,8,-1,10,-1,12,14,16,18,-1,-1,-1,20,22,-1,-1,-1,-1,-1,-1],"split_conditions":[-3.6749774E-1,2.7855778E0,-3.585785E-1,-1.00424886E-1,-1.7936026E-1,8.7324E-2,-2.6703158E-1,-7.5836204E-2,-4.4613582E-1,-2.6242992E-1,6.0742415E-2,-5.260662E-2,-3.9739963E-2,-9.138783E-2,-1.9518847E-2,2.6903233E-1,-5.2589897E-2,1.4724234E-2,6.234154E-2,-3.21704E-2,9.066271E-2,-8.357627E-2,3.4131866E-2],"split_indices":[66,48,66,0,36,0,1,0,66,22,18,19,0,0,0,8,19,0,0,0,0,0,0],"split_type":[0,0,0,0,0,0,0,0,0,0,0,0,0,0,0,0,0,0,0,0,0,0,0],"sum_hessian":[4.8176994E1,1.9485376E1,2.8691616E1,1.1443112E1,8.042264E0,4.326165E0,2.4365452E1,3.0470834E0,4.9951806E0,7.2020607E0,1.716339E1,3.3464613E0,1.6487191E0,6.17524E0,1.0268208E0,8.914281E0,8.249109E0,1.1566633E0,2.189798E0,1.6145331E0,7.299748E0,6.067942E0,2.1811666E0],"tree_param":{"num_deleted":"0","num_feature":"78","num_nodes":"23","size_leaf_vector":"1"}},{"base_weights":[-2.9053363E-1,-9.0993635E-2,-1.05906494E-1,-8.979106E-2,5.2120123E-2,1.876012E-1,-7.911969E-2,5.1921946E-1,-1.488446E-1,6.482356E-2,-5.3585548E-2,-8.75586E-2,2.5257085E-2],"categories":[],"categories_nodes":[],"categories_segments":[],"categories_sizes":[],"default_left":[0,0,0,0,0,0,0,0,0,0,0,0,0],"id":44,"left_children":[1,-1,3,-1,5,7,-1,9,11,-1,-1,-1,-1],"loss_changes":[5.223258E0,0E0,4.6735325E0,0E0,3.777496E0,3.2208211E0,0E0,2.309166E0,4.5278697E0,0E0,0E0,0E0,0E0],"parents":[2147483647,0,0,2,2,4,4,5,5,7,7,8,8],"right_children":[2,-1,4,-1,6,8,-1,10,12,-1,-1,-1,-1],"split_conditions":[1.0063272E0,-9.0993635E-2,-4.302451E-1,-8.979106E-2,-4.2980734E-1,-2.1944416E-1,-7.911969E-2,-5.200684E-2,-1.3214251E-1,6.482356E-2,-5.3585548E-2,-8.75586E-2,2.5257085E-2],"split_indices":[69,0,0,0,0,67,0,19,67,0,0,0,0],"split_type":[0,0,0,0,0,0,0,0,0,0,0,0,0],"sum_hessian":[4.551709E1,9.54987E0,3.596722E1,5.2039304E0,3.0763288E1,2.7175085E1,3.5882041E0,1.3412141E1,1.3762943E1,1.229437E1,1.1177717E0,4.4767604E0,9.286183E0],"tree_param":{"num_deleted":"0","num_feature":"78","num_nodes":"13","size_leaf_vector":"1"}},{"base_weights":[-2.8137022E-1,-9.016004E-2,-1.05437234E-1,-8.834327E-2,4.303887E-2,1.6907756E-1,-7.770373E-2,2.844105E-1,-6.1881065E-2,-1.2310165E-3,7.3918454E-2],"categories":[],"categories_nodes":[],"categories_segments":[],"categories_sizes":[],"default_left":[0,0,0,0,0,0,0,0,0,0,0],"id":45,"left_children":[1,-1,3,-1,5,7,-1,9,-1,-1,-1],"loss_changes":[4.772977E0,0E0,4.183396E0,0E0,3.3447607E0,2.6993089E0,0E0,3.3701901E0,0E0,0E0,0E0],"parents":[2147483647,0,0,2,2,4,4,5,5,7,7],"right_children":[2,-1,4,-1,6,8,-1,10,-1,-1,-1],"split_conditions":[1.0063272E0,-9.016004E-2,-4.302451E-1,-8.834327E-2,-4.2980734E-1,-1.3144527E-1,-7.770373E-2,-1.3153538E-1,-6.1881065E-2,-1.2310165E-3,7.3918454E-2],"split_indices":[69,0,0,0,0,24,0,24,0,0,0],"split_type":[0,0,0,0,0,0,0,0,0,0,0],"sum_hessian":[4.361222E1,8.7258005E0,3.4886417E1,4.7976036E0,3.0088816E1,2.6768545E1,3.3202696E0,2.3907875E1,2.8606696E0,1.5056852E1,8.851023E0],"tree_param":{"num_deleted":"0","num_feature":"78","num_nodes":"11","size_leaf_vector":"1"}},{"base_weights":[-2.7044526E-1,-9.230519E-2,-1.09799534E-1,3.1623013E-2,-8.392741E-2,1.4815108E-1,-6.700541E-2,-4.831149E-2,8.333304E-2,-1.9964293E-2,8.594177E-2],"categories":[],"categories_nodes":[],"categories_segments":[],"categories_sizes":[],"default_left":[0,0,0,0,0,0,0,0,0,0,0],"id":46,"left_children":[1,-1,3,5,-1,7,-1,9,-1,-1,-1],"loss_changes":[4.3950024E0,0E0,3.6941757E0,2.6128943E0,0E0,3.6993814E0,0E0,3.20337E0,0E0,0E0,0E0],"parents":[2147483647,0,0,2,2,3,3,5,5,7,7],"right_children":[2,-1,4,6,-1,8,-1,10,-1,-1,-1],"split_conditions":[-4.4888592E-1,-9.230519E-2,-4.2980734E-1,-1.3144527E-1,-8.392741E-2,-1.3149893E-1,-6.700541E-2,3.492477E0,8.333304E-2,-1.9964293E-2,8.594177E-2],"split_indices":[66,0,0,24,0,24,0,13,0,0,0],"split_type":[0,0,0,0,0,0,0,0,0,0,0],"sum_hessian":[4.188839E1,7.3369412E0,3.455145E1,2.9742037E1,4.8094115E0,2.6182714E1,3.5593224E0,2.1070599E1,5.112116E0,1.8728374E1,2.3422246E0],"tree_param":{"num_deleted":"0","num_feature":"78","num_nodes":"11","size_leaf_vector":"1"}},{"base_weights":[-2.5586295E-1,-8.852E-2,-9.184053E-2,-8.601157E-2,4.4589046E-2,-7.174961E-1,1.6956094E-1,-8.3116576E-2,-1.6730888E-2,2.9193708E-1,-7.201993E-2,3.9823152E-2,-6.4694084E-2],"categories":[],"categories_nodes":[],"categories_segments":[],"categories_sizes":[],"default_left":[0,0,0,0,0,0,0,0,0,0,0,0,0],"id":47,"left_children":[1,-1,3,-1,5,7,9,-1,-1,11,-1,-1,-1],"loss_changes":[4.1846657E0,0E0,3.591428E0,0E0,2.9538107E0,1.34902E-1,3.080101E0,0E0,0E0,2.640937E0,0E0,0E0,0E0],"parents":[2147483647,0,0,2,2,4,4,5,5,6,6,9,9],"right_children":[2,-1,4,-1,6,8,10,-1,-1,12,-1,-1,-1],"split_conditions":[1.0063272E0,-8.852E-2,-4.302451E-1,-8.601157E-2,-5.2622207E-2,1.1415151E0,-5.200684E-2,-8.3116576E-2,-1.6730888E-2,-1.3065666E-1,-7.201993E-2,3.9823152E-2,-6.4694084E-2],"split_indices":[69,0,0,0,19,9,19,0,0,24,0,0,0],"split_type":[0,0,0,0,0,0,0,0,0,0,0,0,0],"sum_hessian":[4.032669E1,7.4282904E0,3.2898403E1,4.161168E0,2.8737234E1,3.380642E0,2.535659E1,2.3785362E0,1.0021057E0,2.2881413E1,2.4751787E0,2.1071644E1,1.8097688E0],"tree_param":{"num_deleted":"0","num_feature":"78","num_nodes":"13","size_leaf_vector":"1"}},{"base_weights":[-2.4933875E-1,-9.086125E-2,-9.955929E-2,3.096099E-2,-8.17648E-2,1.2681204E-1,-7.171928E-2,-1.3294181E-1,5.341426E-1,3.351657E-2,-7.485836E-2,8.065029E-2,-6.182778E-2],"categories":[],"categories_nodes":[],"categories_segments":[],"categories_sizes":[],"default_left":[0,0,0,0,0,0,0,0,0,0,0,0,0],"id":48,"left_children":[1,-1,3,5,-1,7,-1,9,11,-1,-1,-1,-1],"loss_changes":[3.8476908E0,0E0,3.1764982E0,2.200258E0,0E0,2.9196372E0,0E0,5.2193427E0,3.8516984E0,0E0,0E0,0E0,0E0],"parents":[2147483647,0,0,2,2,3,3,5,5,7,7,8,8],"right_children":[2,-1,4,6,-1,8,-1,10,12,-1,-1,-1,-1],"split_conditions":[-4.4888592E-1,-9.086125E-2,-4.2980734E-1,1.2632519E-1,-8.17648E-2,-2.3997231E-1,-7.171928E-2,-3.9079854E-1,-1.3065666E-1,3.351657E-2,-7.485836E-2,8.065029E-2,-6.182778E-2],"split_indices":[66,0,0,28,0,1,0,1,24,0,0,0,0],"split_type":[0,0,0,0,0,0,0,0,0,0,0,0,0],"sum_hessian":[3.8881763E1,6.2602253E0,3.2621536E1,2.8413893E1,4.207644E0,2.5923197E1,2.490696E0,1.6240372E1,9.682824E0,9.484414E0,6.7559576E0,8.074648E0,1.608177E0],"tree_param":{"num_deleted":"0","num_feature":"78","num_nodes":"13","size_leaf_vector":"1"}},{"base_weights":[-2.4342807E-1,-8.666276E-2,-9.221738E-2,-8.410194E-2,3.5597365E-2,-7.009024E-1,1.5508622E-1,-8.064618E-2,-1.8906144E-2,2.642249E-1,-6.881875E-2,6.7903414E-2,5.773193E-5],"categories":[],"categories_nodes":[],"categories_segments":[],"categories_sizes":[],"default_left":[0,0,0,0,0,0,0,0,0,0,0,0,0],"id":49,"left_children":[1,-1,3,-1,5,7,9,-1,-1,11,-1,-1,-1],"loss_changes":[3.507754E0,0E0,3.0693343E0,0E0,2.5803733E0,6.914568E-2,2.4812367E0,0E0,0E0,2.4978936E0,0E0,0E0,0E0],"parents":[2147483647,0,0,2,2,4,4,5,5,6,6,9,9],"right_children":[2,-1,4,-1,6,8,10,-1,-1,12,-1,-1,-1],"split_conditions":[1.0063272E0,-8.666276E-2,-4.302451E-1,-8.410194E-2,-5.2622207E-2,5.057058E-1,-5.200684E-2,-8.064618E-2,-1.8906144E-2,-1.3155323E-1,-6.881875E-2,6.7903414E-2,5.773193E-5],"split_indices":[69,0,0,0,19,8,19,0,0,24,0,0,0],"split_type":[0,0,0,0,0,0,0,0,0,0,0,0,0],"sum_hessian":[3.7071777E1,6.3147826E0,3.0756994E1,3.6709235E0,2.7086071E1,3.1017585E0,2.3984312E1,2.0942433E0,1.0075153E0,2.1843887E1,2.1404245E0,7.876259E0,1.3967629E1],"tree_param":{"num_deleted":"0","num_feature":"78","num_nodes":"13","size_leaf_vector":"1"}},{"base_weights":[-2.3495118E-1,-8.9457266E-2,-9.349041E-2,2.8790075E-2,-7.953037E-2,-5.4939564E-2,8.735112E-2,4.132918E-1,-2.2871558E-1,-4.9593683E-2,6.558945E-2,-6.798906E-2,2.106525E-2],"categories":[],"categories_nodes":[],"categories_segments":[],"categories_sizes":[],"default_left":[0,0,0,0,0,0,0,0,0,0,0,0,0],"id":50,"left_children":[1,-1,3,5,-1,7,-1,9,11,-1,-1,-1,-1],"loss_changes":[3.3515797E0,0E0,2.7202034E0,2.0094151E0,0E0,2.2240553E0,0E0,1.9664785E0,4.0546236E0,0E0,0E0,0E0,0E0],"parents":[2147483647,0,0,2,2,3,3,5,5,7,7,8,8],"right_children":[2,-1,4,6,-1,8,-1,10,12,-1,-1,-1,-1],"split_conditions":[-4.4888592E-1,-8.9457266E-2,-4.2980734E-1,3.9422386E0,-7.953037E-2,-3.1828517E-1,8.735112E-2,2.7855778E0,-1.31529E-1,-4.9593683E-2,6.558945E-2,-6.798906E-2,2.106525E-2],"split_indices":[66,0,0,13,0,18,0,48,24,0,0,0,0],"split_type":[0,0,0,0,0,0,0,0,0,0,0,0,0],"sum_hessian":[3.581484E1,5.3843193E0,3.043052E1,2.6731869E1,3.6986508E0,2.5171776E1,1.5600914E0,6.440324E0,1.8731453E1,1.1365426E0,5.303781E0,8.97147E0,9.759983E0],"tree_param":{"num_deleted":"0","num_feature":"78","num_nodes":"13","size_leaf_vector":"1"}},{"base_weights":[-2.2415735E-1,-6.0970366E-1,8.716077E-3,-9.730949E-2,-1.1422192E-1,8.198162E-2,-1.7939325E-1,-6.611467E-2,2.3850054E-1,-7.9727286E-1,1.14138484E-1,5.3327102E-2,-3.1119684E-2,-8.596521E-2,-2.3739422E-2,5.783113E-1,-4.812776E-1,7.74233E-2,-3.055361E-2,-7.769769E-2,3.0381424E-2],"categories":[],"categories_nodes":[],"categories_segments":[],"categories_sizes":[],"default_left":[0,0,0,0,0,0,0,0,0,0,0,0,0,0,0,0,0,0,0,0,0],"id":51,"left_children":[1,3,5,-1,7,-1,9,-1,11,13,15,-1,-1,-1,-1,17,19,-1,-1,-1,-1],"loss_changes":[3.184277E0,2.2920322E0,3.665454E0,0E0,1.4656605E0,0E0,3.634771E0,0E0,9.529166E-1,2.007389E-2,4.181066E0,0E0,0E0,0E0,0E0,1.6892886E0,1.7988535E0,0E0,0E0,0E0,0E0],"parents":[2147483647,0,0,1,1,2,2,4,4,6,6,8,8,9,9,10,10,15,15,16,16],"right_children":[2,4,6,-1,8,-1,10,-1,12,14,16,-1,-1,-1,-1,18,20,-1,-1,-1,-1],"split_conditions":[-3.6749774E-1,2.7855778E0,-3.585785E-1,-9.730949E-2,-1.7936026E-1,8.198162E-2,-2.6703158E-1,-6.611467E-2,-4.4613582E-1,-3.5578567E-1,6.0742415E-2,5.3327102E-2,-3.1119684E-2,-8.596521E-2,-2.3739422E-2,-1.1867962E-1,-5.2589897E-2,7.74233E-2,-3.055361E-2,-7.769769E-2,3.0381424E-2],"split_indices":[66,48,66,0,36,0,1,0,66,20,18,0,0,0,0,67,19,0,0,0,0],"split_type":[0,0,0,0,0,0,0,0,0,0,0,0,0,0,0,0,0,0,0,0,0],"sum_hessian":[3.4406982E1,1.2347022E1,2.2059961E1,6.5668736E0,5.780149E0,3.5207608E0,1.85392E1,1.9233806E0,3.8567684E0,5.4180827E0,1.3121117E1,2.529974E0,1.3267943E0,4.3931875E0,1.0248953E0,7.389308E0,5.731809E0,6.150052E0,1.2392561E0,4.171122E0,1.5606868E0],"tree_param":{"num_deleted":"0","num_feature":"78","num_nodes":"21","size_leaf_vector":"1"}},{"base_weights":[-2.1795547E-1,-5.940618E-1,6.1693294E-3,-9.599684E-2,-1.1294502E-1,7.820807E-2,-1.7516358E-1,-6.461069E-2,2.232207E-1,-8.46722E-2,7.871842E-2,5.0439563E-2,-2.9494667E-2,3.437771E-1,-7.455806E-2,5.7247676E-2,-6.311148E-2],"categories":[],"categories_nodes":[],"categories_segments":[],"categories_sizes":[],"default_left":[0,0,0,0,0,0,0,0,0,0,0,0,0,0,0,0,0],"id":52,"left_children":[1,3,5,-1,7,-1,9,-1,11,-1,13,-1,-1,15,-1,-1,-1],"loss_changes":[2.8492236E0,2.1123958E0,3.2523465E0,0E0,1.3240964E0,0E0,3.2659674E0,0E0,8.45281E-1,0E0,3.4313288E0,0E0,0E0,2.9655273E0,0E0,0E0,0E0],"parents":[2147483647,0,0,1,1,2,2,4,4,6,6,8,8,10,10,13,13],"right_children":[2,4,6,-1,8,-1,10,-1,12,-1,14,-1,-1,16,-1,-1,-1],"split_conditions":[-3.6749774E-1,2.7855778E0,-3.585785E-1,-9.599684E-2,9.275992E-2,7.820807E-2,-2.2799705E-1,-6.461069E-2,-4.4613582E-1,-8.46722E-2,-8.191079E-2,5.0439563E-2,-2.9494667E-2,-1.3065666E-1,-7.455806E-2,5.7247676E-2,-6.311148E-2],"split_indices":[66,48,66,0,37,0,17,0,66,0,73,0,0,24,0,0,0],"split_type":[0,0,0,0,0,0,0,0,0,0,0,0,0,0,0,0,0],"sum_hessian":[3.275725E1,1.1615151E1,2.11421E1,6.032174E0,5.5829773E0,3.3774145E0,1.7764685E1,1.8023865E0,3.7805908E0,4.232897E0,1.3531788E1,2.4679673E0,1.3126234E0,1.0680387E1,2.8514013E0,8.985305E0,1.6950814E0],"tree_param":{"num_deleted":"0","num_feature":"78","num_nodes":"17","size_leaf_vector":"1"}},{"base_weights":[-2.1375935E-1,-8.295117E-2,-7.707086E-2,-7.9802185E-2,3.7948932E-2,-6.422497E-2,1.4676104E-1,1.3089689E-2,7.826322E-1,-1.7977536E-2,6.559939E-2,1.3308205E-2,1.0221513E-1],"categories":[],"categories_nodes":[],"categories_segments":[],"categories_sizes":[],"default_left":[0,0,0,0,0,0,0,0,0,0,0,0,0],"id":53,"left_children":[1,-1,3,-1,5,-1,7,9,11,-1,-1,-1,-1],"loss_changes":[2.649231E0,0E0,2.3092096E0,0E0,1.9191126E0,0E0,1.8656006E0,2.5051656E0,4.5773792E-1,0E0,0E0,0E0,0E0],"parents":[2147483647,0,0,2,2,4,4,6,6,7,7,8,8],"right_children":[2,-1,4,-1,6,-1,8,10,12,-1,-1,-1,-1],"split_conditions":[1.0063272E0,-8.295117E-2,-4.302451E-1,-7.9802185E-2,-5.2622207E-2,-6.422497E-2,1.678956E0,-1.3098906E-1,3.492477E0,-1.7977536E-2,6.559939E-2,1.3308205E-2,1.0221513E-1],"split_indices":[69,0,0,0,19,0,40,15,13,0,0,0,0],"split_type":[0,0,0,0,0,0,0,0,0,0,0,0,0],"sum_hessian":[3.123574E1,4.7535205E0,2.648222E1,2.826627E0,2.3655594E1,2.5862482E0,2.1069345E1,1.8252857E1,2.8164878E0,1.4594898E1,3.6579585E0,1.1778654E0,1.6386225E0],"tree_param":{"num_deleted":"0","num_feature":"78","num_nodes":"13","size_leaf_vector":"1"}},{"base_weights":[-2.0061888E-1,-5.7221514E-1,1.3556158E-2,-9.404605E-2,-1.1098966E-1,7.406134E-2,-1.5975057E-1,-6.222993E-2,2.0531173E-1,-7.2082E-1,1.3953109E-1,4.7049243E-2,-2.7496008E-2,-8.5840166E-2,1.8060746E-4,4.362147E-1,-7.222055E-2,6.618998E-2,-5.7239354E-2],"categories":[],"categories_nodes":[],"categories_segments":[],"categories_sizes":[],"default_left":[0,0,0,0,0,0,0,0,0,0,0,0,0,0,0,0,0,0,0],"id":54,"left_children":[1,3,5,-1,7,-1,9,-1,11,13,15,-1,-1,-1,-1,17,-1,-1,-1],"loss_changes":[2.501966E0,1.8457339E0,2.7464721E0,0E0,1.1355203E0,0E0,3.0669312E0,0E0,7.1542466E-1,6.2862325E-1,3.474575E0,0E0,0E0,0E0,0E0,2.6133952E0,0E0,0E0,0E0],"parents":[2147483647,0,0,1,1,2,2,4,4,6,6,8,8,9,9,10,10,15,15],"right_children":[2,4,6,-1,8,-1,10,-1,12,14,16,-1,-1,-1,-1,18,-1,-1,-1],"split_conditions":[-3.6749774E-1,2.7855778E0,-3.585785E-1,-9.404605E-2,-1.7936026E-1,7.406134E-2,-2.3997231E-1,-6.222993E-2,-4.4613582E-1,-3.4124285E-1,1.1352724E-1,4.7049243E-2,-2.7496008E-2,-8.5840166E-2,1.8060746E-4,-1.3065666E-1,-7.222055E-2,6.618998E-2,-5.7239354E-2],"split_indices":[66,48,66,0,36,0,1,0,66,20,77,0,0,0,0,24,0,0,0],"split_type":[0,0,0,0,0,0,0,0,0,0,0,0,0,0,0,0,0,0,0],"sum_hessian":[3.0339548E1,1.0481793E1,1.9857754E1,5.2506185E0,5.231175E0,3.1922376E0,1.6665518E1,1.6295457E0,3.6016293E0,5.3073044E0,1.1358212E1,2.3335361E0,1.268093E0,4.3006134E0,1.006691E0,8.816585E0,2.5416286E0,7.485407E0,1.3311772E0],"tree_param":{"num_deleted":"0","num_feature":"78","num_nodes":"19","size_leaf_vector":"1"}},{"base_weights":[-1.9720751E-1,-8.07307E-2,-6.905796E-2,-2.780797E-1,2.9015276E-1,1.0952914E-1,-5.426902E-1,5.693912E-1,-5.3317886E-2,-6.280972E-2,4.3921295E-1,-8.7506466E-2,6.820624E-2,-4.590528E-2,8.839833E-1,-3.8511504E-3,5.488313E-2,7.92203E-2,-6.620619E-2,2.8950764E-2,-4.1031025E-2,9.922317E-2,2.2814846E-2],"categories":[],"categories_nodes":[],"categories_segments":[],"categories_sizes":[],"default_left":[0,0,0,0,0,0,0,0,0,0,0,0,0,0,0,0,0,0,0,0,0,0,0],"id":55,"left_children":[1,-1,3,5,7,9,11,13,-1,-1,15,-1,17,19,21,-1,-1,-1,-1,-1,-1,-1,-1],"loss_changes":[2.285314E0,0E0,2.0207424E0,1.787133E0,2.6012876E0,2.1401446E0,2.1264246E0,1.5787733E0,0E0,0E0,3.2940233E-1,0E0,2.9112415E0,5.635743E-1,1.5042019E-1,0E0,0E0,0E0,0E0,0E0,0E0,0E0,0E0],"parents":[2147483647,0,0,2,2,3,3,4,4,5,5,6,6,7,7,10,10,12,12,13,13,14,14],"right_children":[2,-1,4,6,8,10,12,14,-1,-1,16,-1,18,20,22,-1,-1,-1,-1,-1,-1,-1,-1],"split_conditions":[1.0063272E0,-8.07307E-2,-1.3153538E-1,-3.1828517E-1,-1.3144527E-1,2.7855778E0,4.2584354E-1,-2.3719326E-1,-5.3317886E-2,-6.280972E-2,-5.2612703E-2,-8.7506466E-2,-1.3155228E-1,-3.585785E-1,7.71747E-2,-3.8511504E-3,5.488313E-2,7.92203E-2,-6.620619E-2,2.8950764E-2,-4.1031025E-2,9.922317E-2,2.2814846E-2],"split_indices":[69,0,24,18,24,48,8,23,0,0,19,0,24,66,18,0,0,0,0,0,0,0,0],"split_type":[0,0,0,0,0,0,0,0,0,0,0,0,0,0,0,0,0,0,0,0,0,0,0],"sum_hessian":[2.8943026E1,4.104141E0,2.4838884E1,1.584479E1,8.994093E0,6.666131E0,9.178659E0,6.946553E0,2.0475397E0,1.7795223E0,4.886609E0,5.664377E0,3.5142825E0,2.6390448E0,4.3075085E0,1.0330743E0,3.8535347E0,1.7221302E0,1.7921523E0,1.4812115E0,1.1578333E0,3.2569978E0,1.0505106E0],"tree_param":{"num_deleted":"0","num_feature":"78","num_nodes":"23","size_leaf_vector":"1"}},{"base_weights":[-1.9080499E-1,-5.5021125E-1,1.5518558E-2,-9.145591E-2,-1.1139149E-1,7.067432E-2,-1.5618801E-1,-5.865529E-2,1.6927315E-1,-6.910305E-1,1.258588E-1,4.2825546E-2,-2.7319843E-2,-8.275838E-2,-3.2200806E-3,4.362466E-1,-6.0933627E-2,-7.945344E-3,8.269255E-2],"categories":[],"categories_nodes":[],"categories_segments":[],"categories_sizes":[],"default_left":[0,0,0,0,0,0,0,0,0,0,0,0,0,0,0,0,0,0,0],"id":56,"left_children":[1,3,5,-1,7,-1,9,-1,11,13,15,-1,-1,-1,-1,17,-1,-1,-1],"loss_changes":[2.126886E0,1.5682425E0,2.3798163E0,0E0,8.830954E-1,0E0,2.520993E0,0E0,6.2933177E-1,4.8841143E-1,2.86958E0,0E0,0E0,0E0,0E0,1.799537E0,0E0,0E0,0E0],"parents":[2147483647,0,0,1,1,2,2,4,4,6,6,8,8,9,9,10,10,15,15],"right_children":[2,4,6,-1,8,-1,10,-1,12,14,16,-1,-1,-1,-1,18,-1,-1,-1],"split_conditions":[-3.6749774E-1,2.7855778E0,-3.585785E-1,-9.145591E-2,9.275992E-2,7.067432E-2,-2.3997231E-1,-5.865529E-2,-4.4613582E-1,-2.4899644E-1,1.08550005E-1,4.2825546E-2,-2.7319843E-2,-8.275838E-2,-3.2200806E-3,9.3375933E-1,-6.0933627E-2,-7.945344E-3,8.269255E-2],"split_indices":[66,48,66,0,37,0,1,0,66,22,18,0,0,0,0,9,0,0,0],"split_type":[0,0,0,0,0,0,0,0,0,0,0,0,0,0,0,0,0,0,0],"sum_hessian":[2.7566877E1,9.445867E0,1.8121012E1,4.568528E0,4.8773384E0,2.985707E0,1.5135304E1,1.4064189E0,3.4709194E0,4.725096E0,1.0410208E1,2.209695E0,1.2612242E0,3.701713E0,1.0233833E0,7.605788E0,2.8044198E0,3.621715E0,3.9840732E0],"tree_param":{"num_deleted":"0","num_feature":"78","num_nodes":"19","size_leaf_vector":"1"}},{"base_weights":[-1.8446432E-1,-7.8447066E-2,-6.186306E-2,2.48862E-1,-2.9820424E-1,4.0699345E-1,-5.0337207E-2,-4.9414188E-1,1.688494E-1,6.0537857E-1,-3.4181636E-2,-7.473045E-1,1.9025014E-1,-4.1897733E-2,4.5582168E-2,8.964093E-3,8.8967174E-2,-2.2528948E-2,-8.565348E-2,6.803106E-2,-3.5704218E-2],"categories":[],"categories_nodes":[],"categories_segments":[],"categories_sizes":[],"default_left":[0,0,0,0,0,0,0,0,0,0,0,0,0,0,0,0,0,0,0,0,0],"id":57,"left_children":[1,-1,3,5,7,9,-1,11,13,15,-1,17,19,-1,-1,-1,-1,-1,-1,-1,-1],"loss_changes":[1.9717166E0,0E0,1.8285804E0,1.4973633E0,1.3667922E0,1.6228201E0,0E0,1.897995E0,1.015844E0,1.0779436E0,0E0,2.4040556E-1,1.190599E0,0E0,0E0,0E0,0E0,0E0,0E0,0E0,0E0],"parents":[2147483647,0,0,2,2,3,3,4,4,5,5,7,7,8,8,9,9,11,11,12,12],"right_children":[2,-1,4,6,8,10,-1,12,14,16,-1,18,20,-1,-1,-1,-1,-1,-1,-1,-1],"split_conditions":[1.0063272E0,-7.8447066E-2,6.286804E-1,-1.3130096E-1,-1.6498248E-1,3.6466771E-3,-5.0337207E-2,1.1141052E-1,-5.2616123E-2,-1.9855563E-1,-3.4181636E-2,-3.9082208E-1,-9.136174E-3,-4.1897733E-2,4.5582168E-2,8.964093E-3,8.8967174E-2,-2.2528948E-2,-8.565348E-2,6.803106E-2,-3.5704218E-2],"split_indices":[69,0,51,24,36,27,0,28,19,21,0,1,34,0,0,0,0,0,0,0,0],"split_type":[0,0,0,0,0,0,0,0,0,0,0,0,0,0,0,0,0,0,0,0,0],"sum_hessian":[2.6463356E1,3.5739615E0,2.2889395E1,9.86569E0,1.3023705E1,8.531242E0,1.334448E0,9.133877E0,3.8898282E0,6.8958445E0,1.6353976E0,6.6004047E0,2.533472E0,1.125136E0,2.7646923E0,2.9178572E0,3.9779873E0,1.6720659E0,4.928339E0,1.2083946E0,1.3250773E0],"tree_param":{"num_deleted":"0","num_feature":"78","num_nodes":"21","size_leaf_vector":"1"}},{"base_weights":[-1.7874208E-1,-2.6759252E-1,5.5772144E-1,-8.1476204E-2,-6.7878044E-1,-1.0925214E-3,8.310626E-2,2.3655508E-2,-6.487169E-2,-8.650411E-2,2.5712868E-2,-3.4395158E-1,2.7874982E-1,-7.978112E-2,-4.828588E-3,4.625307E-2,-5.5758256E-2],"categories":[],"categories_nodes":[],"categories_segments":[],"categories_sizes":[],"default_left":[0,0,0,0,0,0,0,0,0,0,0,0,0,0,0,0,0],"id":58,"left_children":[1,3,5,7,9,-1,-1,11,-1,-1,-1,13,15,-1,-1,-1,-1],"loss_changes":[1.8753159E0,1.7977917E0,5.008803E-1,1.0771902E0,1.5139232E0,0E0,0E0,1.5949976E0,0E0,0E0,0E0,9.0035814E-1,1.7933562E0,0E0,0E0,0E0,0E0],"parents":[2147483647,0,0,1,1,2,2,3,3,4,4,7,7,11,11,12,12],"right_children":[2,4,6,8,10,-1,-1,12,-1,-1,-1,14,16,-1,-1,-1,-1],"split_conditions":[3.492477E0,-5.5931125E-2,7.7151114E-1,2.3690607E-1,4.3138616E-2,-1.0925214E-3,8.310626E-2,-3.6749774E-1,-6.487169E-2,-8.650411E-2,2.5712868E-2,2.7855778E0,-1.3065666E-1,-7.978112E-2,-4.828588E-3,4.625307E-2,-5.5758256E-2],"split_indices":[13,14,6,18,35,0,0,66,0,0,0,48,24,0,0,0,0],"split_type":[0,0,0,0,0,0,0,0,0,0,0,0,0,0,0,0,0],"sum_hessian":[2.5378408E1,2.3214369E1,2.1640391E0,1.6805727E1,6.4086413E0,1.0141915E0,1.1498477E0,1.4986454E1,1.819274E0,5.4080715E0,1.0005699E0,5.996617E0,8.989837E0,1.6955376E0,4.3010793E0,7.7366834E0,1.2531536E0],"tree_param":{"num_deleted":"0","num_feature":"78","num_nodes":"17","size_leaf_vector":"1"}},{"base_weights":[-1.7245723E-1,-7.3190846E-2,-4.5376316E-2,-1.6522035E-1,6.015844E-1,-1.7795657E-3,-7.730513E-2,-1.2372104E-3,8.507083E-2,1.004611E-1,-6.0114194E-2,-2.7053704E-2,3.4905996E-2],"categories":[],"categories_nodes":[],"categories_segments":[],"categories_sizes":[],"default_left":[0,0,0,0,0,0,0,0,0,0,0,0,0],"id":59,"left_children":[1,-1,3,5,7,9,-1,-1,-1,11,-1,-1,-1],"loss_changes":[1.7831116E0,0E0,1.7962114E0,1.9108922E0,5.6663E-1,1.0514075E0,0E0,0E0,0E0,1.4476539E0,0E0,0E0,0E0],"parents":[2147483647,0,0,2,2,3,3,4,4,5,5,9,9],"right_children":[2,-1,4,6,8,10,-1,-1,-1,12,-1,-1,-1],"split_conditions":[-5.2622207E-2,-7.3190846E-2,1.6816788E0,-5.5931125E-2,3.492477E0,-1.3065666E-1,-7.730513E-2,-1.2372104E-3,8.507083E-2,-3.6749774E-1,-6.0114194E-2,-2.7053704E-2,3.4905996E-2],"split_indices":[19,0,12,14,13,24,0,0,0,66,0,0,0],"split_type":[0,0,0,0,0,0,0,0,0,0,0,0,0],"sum_hessian":[2.4547623E1,3.6629124E0,2.088471E1,1.8248878E1,2.635831E0,1.5172141E1,3.0767374E0,1.0351299E0,1.6007011E0,1.3672278E1,1.4998635E0,5.450276E0,8.222002E0],"tree_param":{"num_deleted":"0","num_feature":"78","num_nodes":"13","size_leaf_vector":"1"}},{"base_weights":[-1.645672E-1,-7.827091E-2,-5.2448865E-2,9.1767974E-2,-7.4899375E-2,3.6795864E-1,-2.1585847E-1,6.985418E-1,2.2780491E-2,-6.941335E-1,1.3372077E-1,8.400948E-2,8.890645E-3,-5.427144E-2,2.539413E-2,-8.529773E-2,-9.572499E-3,6.404624E-2,-2.480111E-2],"categories":[],"categories_nodes":[],"categories_segments":[],"categories_sizes":[],"default_left":[0,0,0,0,0,0,0,0,0,0,0,0,0,0,0,0,0,0,0],"id":60,"left_children":[1,-1,3,5,-1,7,9,11,13,15,17,-1,-1,-1,-1,-1,-1,-1,-1],"loss_changes":[1.6861157E0,0E0,2.2954721E0,1.7154343E0,0E0,1.1840507E0,1.7212257E0,3.8593674E-1,9.454169E-1,3.2463264E-1,1.4094845E0,0E0,0E0,0E0,0E0,0E0,0E0,0E0,0E0],"parents":[2147483647,0,0,2,2,3,3,5,5,6,6,7,7,8,8,9,9,10,10],"right_children":[2,-1,4,6,-1,8,10,12,14,16,18,-1,-1,-1,-1,-1,-1,-1,-1],"split_conditions":[-4.302451E-1,-7.827091E-2,-4.2980734E-1,-2.1944416E-1,-7.4899375E-2,-1.3155323E-1,-1.3214251E-1,-5.2594077E-2,-5.2611943E-2,1.4610822E-1,-1.1867962E-1,8.400948E-2,8.890645E-3,-5.427144E-2,2.539413E-2,-8.529773E-2,-9.572499E-3,6.404624E-2,-2.480111E-2],"split_indices":[0,0,0,67,0,24,67,19,19,25,67,0,0,0,0,0,0,0,0],"split_type":[0,0,0,0,0,0,0,0,0,0,0,0,0,0,0,0,0,0,0],"sum_hessian":[2.3921244E1,2.7543874E0,2.1166857E1,1.8255402E1,2.9114554E0,9.515843E0,8.739558E0,4.3377705E0,5.1780734E0,3.2742646E0,5.4652934E0,3.2135735E0,1.1241969E0,1.1114136E0,4.06666E0,2.251269E0,1.0229954E0,2.0569508E0,3.4083426E0],"tree_param":{"num_deleted":"0","num_feature":"78","num_nodes":"19","size_leaf_vector":"1"}},{"base_weights":[-1.5980579E-1,-7.65452E-2,-5.2022733E-2,8.4982164E-2,-7.34268E-2,3.4328565E-1,-2.0569338E-1,6.6151094E-1,1.5734384E-2,-6.696679E-1,1.2930198E-1,7.994292E-2,8.419133E-3,-5.1914334E-2,2.4187174E-2,-8.285129E-2,-9.1254935E-3,6.1877944E-2,-2.2995783E-2],"categories":[],"categories_nodes":[],"categories_segments":[],"categories_sizes":[],"default_left":[0,0,0,0,0,0,0,0,0,0,0,0,0,0,0,0,0,0,0],"id":61,"left_children":[1,-1,3,5,-1,7,9,11,13,15,17,-1,-1,-1,-1,-1,-1,-1,-1],"loss_changes":[1.5329645E0,0E0,2.0744965E0,1.4838743E0,0E0,1.067492E0,1.5603307E0,3.4839272E-1,8.658425E-1,3.0452836E-1,1.257947E0,0E0,0E0,0E0,0E0,0E0,0E0,0E0,0E0],"parents":[2147483647,0,0,2,2,3,3,5,5,6,6,7,7,8,8,9,9,10,10],"right_children":[2,-1,4,6,-1,8,10,12,14,16,18,-1,-1,-1,-1,-1,-1,-1,-1],"split_conditions":[-4.302451E-1,-7.65452E-2,-4.2980734E-1,-2.1944416E-1,-7.34268E-2,-1.3155323E-1,-1.3214251E-1,-5.2594077E-2,-1.3153538E-1,1.4610822E-1,-1.1867962E-1,7.994292E-2,8.419133E-3,-5.1914334E-2,2.4187174E-2,-8.285129E-2,-9.1254935E-3,6.1877944E-2,-2.2995783E-2],"split_indices":[0,0,0,67,0,24,67,19,24,25,67,0,0,0,0,0,0,0,0],"split_type":[0,0,0,0,0,0,0,0,0,0,0,0,0,0,0,0,0,0,0],"sum_hessian":[2.3093506E1,2.5670655E0,2.0526442E1,1.7822798E1,2.703643E0,9.341052E0,8.481746E0,4.220831E0,5.120221E0,3.137381E0,5.344365E0,3.096395E0,1.1244359E0,1.1364652E0,3.9837558E0,2.1221907E0,1.0151904E0,1.9564312E0,3.387934E0],"tree_param":{"num_deleted":"0","num_feature":"78","num_nodes":"19","size_leaf_vector":"1"}},{"base_weights":[-1.5515842E-1,-6.9240384E-2,-3.7704684E-2,-1.5055084E-1,5.59725E-1,-4.351054E-3,-7.334659E-2,5.7999594E-3,7.564477E-2,9.2217095E-2,-5.7696283E-2,1.9904299E-2,-5.547436E-2],"categories":[],"categories_nodes":[],"categories_segments":[],"categories_sizes":[],"default_left":[0,0,0,0,0,0,0,0,0,0,0,0,0],"id":62,"left_children":[1,-1,3,5,7,9,-1,-1,-1,11,-1,-1,-1],"loss_changes":[1.4464059E0,0E0,1.4465607E0,1.5124352E0,2.9391444E-1,8.950511E-1,0E0,0E0,0E0,1.0703528E0,0E0,0E0,0E0],"parents":[2147483647,0,0,2,2,3,3,4,4,5,5,9,9],"right_children":[2,-1,4,6,8,10,-1,-1,-1,12,-1,-1,-1],"split_conditions":[-5.2622207E-2,-6.9240384E-2,1.6816788E0,-5.5931125E-2,1.0456102E0,-5.200684E-2,-7.334659E-2,5.7999594E-3,7.564477E-2,6.1908585E-1,-5.7696283E-2,1.9904299E-2,-5.547436E-2],"split_indices":[19,0,12,14,9,19,0,0,0,27,0,0,0],"split_type":[0,0,0,0,0,0,0,0,0,0,0,0,0],"sum_hessian":[2.233563E1,3.1288464E0,1.9206783E1,1.678444E1,2.4223447E0,1.4224328E1,2.5601113E0,1.0469675E0,1.3753772E0,1.2889526E1,1.3348014E0,1.165706E1,1.2324673E0],"tree_param":{"num_deleted":"0","num_feature":"78","num_nodes":"13","size_leaf_vector":"1"}},{"base_weights":[-1.5045209E-1,-2.3369066E-1,5.0261687E-2,-3.7448925E-1,1.9575112E-1,4.6517823E-2,-6.2038606E-1,6.735822E-2,-5.1600065E-2,-5.313273E-2,3.3290353E-1,-7.5319755E-1,-8.977362E-2,-4.2767664E-3,4.396295E-2,-6.1812173E-3,-8.598353E-2,3.6834557E-2,-5.3204913E-2],"categories":[],"categories_nodes":[],"categories_segments":[],"categories_sizes":[],"default_left":[0,0,0,0,0,0,0,0,0,0,0,0,0,0,0,0,0,0,0],"id":63,"left_children":[1,3,-1,5,7,9,11,-1,-1,-1,13,15,17,-1,-1,-1,-1,-1,-1],"loss_changes":[1.3557354E0,1.3362035E0,0E0,1.6927695E0,2.3248327E0,1.3115332E0,6.523328E-1,0E0,0E0,0E0,2.2725761E-1,5.3930473E-1,8.4039646E-1,0E0,0E0,0E0,0E0,0E0,0E0],"parents":[2147483647,0,0,1,1,3,3,4,4,5,5,6,6,10,10,11,11,12,12],"right_children":[2,4,-1,6,8,10,12,-1,-1,-1,14,16,18,-1,-1,-1,-1,-1,-1],"split_conditions":[3.492477E0,-1.3149893E-1,5.0261687E-2,-3.1828517E-1,-1.3144527E-1,2.7855778E0,-1.3283747E-1,6.735822E-2,-5.1600065E-2,-5.313273E-2,-5.2610423E-2,-1.1365939E-2,-1.3278316E-1,-4.2767664E-3,4.396295E-2,-6.1812173E-3,-8.598353E-2,3.6834557E-2,-5.3204913E-2],"split_indices":[13,24,0,18,24,48,29,0,0,0,19,3,29,0,0,0,0,0,0],"split_type":[0,0,0,0,0,0,0,0,0,0,0,0,0,0,0,0,0,0,0],"sum_hessian":[2.1778997E1,1.988648E1,1.8925171E0,1.5072659E1,4.813822E0,5.856463E0,9.216196E0,2.9122949E0,1.9015272E0,1.6572721E0,4.1991906E0,7.0356874E0,2.1805089E0,1.0616171E0,3.1375735E0,1.1512443E0,5.884443E0,1.1531783E0,1.0273305E0],"tree_param":{"num_deleted":"0","num_feature":"78","num_nodes":"19","size_leaf_vector":"1"}},{"base_weights":[-1.4373542E-1,-7.354813E-2,-4.1042563E-2,8.79913E-2,-7.0361756E-2,3.2445365E-1,-1.8643792E-1,6.3920957E-1,6.1963024E-3,-6.2320745E-1,1.2577263E-1,7.5794E-2,9.856527E-3,-4.890046E-2,2.1216286E-2,-7.7609144E-2,-1.023643E-2,5.8938444E-2,-2.1196155E-2],"categories":[],"categories_nodes":[],"categories_segments":[],"categories_sizes":[],"default_left":[0,0,0,0,0,0,0,0,0,0,0,0,0,0,0,0,0,0,0],"id":64,"left_children":[1,-1,3,5,-1,7,9,11,13,15,17,-1,-1,-1,-1,-1,-1,-1,-1],"loss_changes":[1.3049691E0,0E0,1.7531091E0,1.1925848E0,0E0,9.71333E-1,1.2660751E0,2.3887634E-1,7.00509E-1,2.2302938E-1,1.0504832E0,0E0,0E0,0E0,0E0,0E0,0E0,0E0,0E0],"parents":[2147483647,0,0,2,2,3,3,5,5,6,6,7,7,8,8,9,9,10,10],"right_children":[2,-1,4,6,-1,8,10,12,14,16,18,-1,-1,-1,-1,-1,-1,-1,-1],"split_conditions":[-4.302451E-1,-7.354813E-2,-4.2980734E-1,-2.1944416E-1,-7.0361756E-2,-1.3155323E-1,-1.3214251E-1,-5.2594077E-2,-1.3153538E-1,-1.528647E-1,-1.1867962E-1,7.5794E-2,9.856527E-3,-4.890046E-2,2.1216286E-2,-7.7609144E-2,-1.023643E-2,5.8938444E-2,-2.1196155E-2],"split_indices":[0,0,0,67,0,24,67,19,24,1,67,0,0,0,0,0,0,0,0],"split_type":[0,0,0,0,0,0,0,0,0,0,0,0,0,0,0,0,0,0,0],"sum_hessian":[2.0971321E1,2.1899936E0,1.8781328E1,1.6445776E1,2.3355517E0,8.736055E0,7.709721E0,3.885166E0,4.850889E0,2.7985516E0,4.9111695E0,2.8560352E0,1.0291306E0,1.0212723E0,3.8296168E0,1.7846363E0,1.0139152E0,1.7558202E0,3.1553493E0],"tree_param":{"num_deleted":"0","num_feature":"78","num_nodes":"19","size_leaf_vector":"1"}},{"base_weights":[-1.4003472E-1,-7.178637E-2,-4.1362062E-2,8.127612E-2,-6.8849884E-2,1.6932532E-1,-5.636558E-2,2.9619136E-1,-4.1155508E-1,5.960384E-4,7.5205386E-2,-6.0096245E-2,-1.2532707E-3],"categories":[],"categories_nodes":[],"categories_segments":[],"categories_sizes":[],"default_left":[0,0,0,0,0,0,0,0,0,0,0,0,0],"id":65,"left_children":[1,-1,3,5,-1,7,-1,9,11,-1,-1,-1,-1],"loss_changes":[1.1868876E0,0E0,1.5866024E0,1.0669438E0,0E0,1.2878914E0,0E0,1.7905605E0,2.3844856E-1,0E0,0E0,0E0,0E0],"parents":[2147483647,0,0,2,2,3,3,5,5,7,7,8,8],"right_children":[2,-1,4,6,-1,8,-1,10,12,-1,-1,-1,-1],"split_conditions":[-4.302451E-1,-7.178637E-2,-4.2980734E-1,-1.3065666E-1,-6.8849884E-2,5.3251654E-1,-5.636558E-2,-2.650509E-1,4.2584354E-1,5.960384E-4,7.5205386E-2,-6.0096245E-2,-1.2532707E-3],"split_indices":[0,0,0,24,0,27,0,22,8,0,0,0,0],"split_type":[0,0,0,0,0,0,0,0,0,0,0,0,0],"sum_hessian":[2.0337551E1,2.0510957E0,1.8286455E1,1.6108212E1,2.1782432E0,1.48220825E1,1.2861295E0,1.256742E1,2.2546632E0,8.297671E0,4.2697487E0,1.1857337E0,1.0689294E0],"tree_param":{"num_deleted":"0","num_feature":"78","num_nodes":"13","size_leaf_vector":"1"}},{"base_weights":[-1.386076E-1,-6.432515E-2,-3.2205764E-2,-1.3545878E-1,5.2290607E-2,1.4284618E-3,-6.968194E-2,9.376199E-2,-5.4172885E-2,-2.4282554E-2,3.104187E-2],"categories":[],"categories_nodes":[],"categories_segments":[],"categories_sizes":[],"default_left":[0,0,0,0,0,0,0,0,0,0,0],"id":66,"left_children":[1,-1,3,5,-1,7,-1,9,-1,-1,-1],"loss_changes":[1.0944614E0,0E0,1.1142858E0,1.2415571E0,0E0,7.5176746E-1,0E0,1.0087129E0,0E0,0E0,0E0],"parents":[2147483647,0,0,2,2,3,3,5,5,7,7],"right_children":[2,-1,4,6,-1,8,-1,10,-1,-1,-1],"split_conditions":[-5.2622207E-2,-6.432515E-2,1.678956E0,-5.5931125E-2,5.2290607E-2,-1.3065666E-1,-6.968194E-2,-3.6749774E-1,-5.4172885E-2,-2.4282554E-2,3.104187E-2],"split_indices":[19,0,40,14,0,24,0,66,0,0,0],"split_type":[0,0,0,0,0,0,0,0,0,0,0],"sum_hessian":[1.9768736E1,2.5637696E0,1.7204967E1,1.5144086E1,2.060881E0,1.297709E1,2.1669955E0,1.1798749E1,1.1783413E0,4.573223E0,7.225526E0],"tree_param":{"num_deleted":"0","num_feature":"78","num_nodes":"11","size_leaf_vector":"1"}},{"base_weights":[-1.3408297E-1,-6.734938E-2,-3.6970954E-2,2.3141888E-1,-2.4755941E-1,3.6373538E-1,-3.6480065E-2,-5.059844E-1,7.605125E-2,5.31464E-1,-2.9016921E-2,-8.505037E-2,1.1843483E-1,-5.3895414E-2,3.5309064E-1,9.822725E-3,7.71639E-2,3.2299727E-2,-1.4175487E-2,4.8265018E-2,1.0826548E-2],"categories":[],"categories_nodes":[],"categories_segments":[],"categories_sizes":[],"default_left":[0,0,0,0,0,0,0,0,0,0,0,0,0,0,0,0,0,0,0,0,0],"id":67,"left_children":[1,-1,3,5,7,9,-1,11,13,15,-1,-1,17,-1,19,-1,-1,-1,-1,-1,-1],"loss_changes":[1.0416111E0,0E0,1.0922593E0,8.0859977E-1,9.3697935E-1,9.781661E-1,0E0,1.413897E0,1.1511836E0,5.8306503E-1,0E0,0E0,2.0802747E-1,0E0,9.0239644E-2,0E0,0E0,0E0,0E0,0E0,0E0],"parents":[2147483647,0,0,2,2,3,3,4,4,5,5,7,7,8,8,9,9,12,12,14,14],"right_children":[2,-1,4,6,8,10,-1,12,14,16,-1,-1,18,-1,20,-1,-1,-1,-1,-1,-1],"split_conditions":[1.0063272E0,-6.734938E-2,6.286804E-1,-1.3144527E-1,2.7855778E0,3.6466771E-3,-3.6480065E-2,1.1141052E-1,-1.7936026E-1,-1.9855563E-1,-2.9016921E-2,